<?xml version="1.0"?>
<opencv_storage>
<cascade>
  <stageType>BOOST</stageType>
  <featureType>HAAR</featureType>
  <height>10</height>
  <width>20</width>
  <stageParams>
    <boostType>GAB</boostType>
    <minHitRate>9.9500000476837158e-01</minHitRate>
    <maxFalseAlarm>4.0000000596046448e-01</maxFalseAlarm>
    <weightTrimRate>9.4999999999999996e-01</weightTrimRate>
    <maxDepth>1</maxDepth>
    <maxWeakCount>100</maxWeakCount></stageParams>
  <featureParams>
    <maxCatCount>0</maxCatCount>
    <featSize>1</featSize>
    <mode>ALL</mode></featureParams>
  <stageNum>16</stageNum>
  <stages>
    <!-- stage 0 -->
    <_>
      <maxWeakCount>4</maxWeakCount>
      <stageThreshold>-7.3897063732147217e-01</stageThreshold>
      <weakClassifiers>
        <_>
          <internalNodes>
            0 -1 44 -4.8556298017501831e-02</internalNodes>
          <leafValues>
            9.5375722646713257e-01 -6.5079367160797119e-01</leafValues></_>
        <_>
          <internalNodes>
            0 -1 3 1.4027220010757446e-01</internalNodes>
          <leafValues>
            -5.7161247730255127e-01 9.0942215919494629e-01</leafValues></_>
        <_>
          <internalNodes>
            0 -1 47 -2.1758453920483589e-02</internalNodes>
          <leafValues>
            9.0742146968841553e-01 -4.1435417532920837e-01</leafValues></_>
        <_>
          <internalNodes>
            0 -1 26 -1.3409491628408432e-02</internalNodes>
          <leafValues>
            8.9778965711593628e-01 -5.4947900772094727e-01</leafValues></_></weakClassifiers></_>
    <!-- stage 1 -->
    <_>
      <maxWeakCount>5</maxWeakCount>
      <stageThreshold>-2.0793771743774414e-01</stageThreshold>
      <weakClassifiers>
        <_>
          <internalNodes>
            0 -1 77 6.3949734903872013e-03</internalNodes>
          <leafValues>
            -6.5517240762710571e-01 9.1011238098144531e-01</leafValues></_>
        <_>
          <internalNodes>
            0 -1 12 -2.1114166826009750e-02</internalNodes>
          <leafValues>
            9.3097341060638428e-01 -4.7474467754364014e-01</leafValues></_>
        <_>
          <internalNodes>
            0 -1 60 -3.1284499913454056e-02</internalNodes>
          <leafValues>
            8.7912958860397339e-01 -3.7749406695365906e-01</leafValues></_>
        <_>
          <internalNodes>
            0 -1 42 6.5741352736949921e-03</internalNodes>
          <leafValues>
            5.4123187065124512e-01 -9.6007400751113892e-01</leafValues></_>
        <_>
          <internalNodes>
            0 -1 16 -6.9929778575897217e-02</internalNodes>
          <leafValues>
            8.5331976413726807e-01 -4.9838212132453918e-01</leafValues></_></weakClassifiers></_>
    <!-- stage 2 -->
    <_>
      <maxWeakCount>7</maxWeakCount>
      <stageThreshold>-4.2893552780151367e-01</stageThreshold>
      <weakClassifiers>
        <_>
          <internalNodes>
            0 -1 47 -2.3230832070112228e-02</internalNodes>
          <leafValues>
            9.0960454940795898e-01 -6.2711864709854126e-01</leafValues></_>
        <_>
          <internalNodes>
            0 -1 76 -2.5921096093952656e-03</internalNodes>
          <leafValues>
            8.1388986110687256e-01 -7.4688512086868286e-01</leafValues></_>
        <_>
          <internalNodes>
            0 -1 43 4.0134049952030182e-02</internalNodes>
          <leafValues>
            -4.5068362355232239e-01 8.3320122957229614e-01</leafValues></_>
        <_>
          <internalNodes>
            0 -1 29 -6.7747468128800392e-03</internalNodes>
          <leafValues>
            6.1064571142196655e-01 -6.2948131561279297e-01</leafValues></_>
        <_>
          <internalNodes>
            0 -1 75 -4.3019456788897514e-03</internalNodes>
          <leafValues>
            -6.7484492063522339e-01 5.2956062555313110e-01</leafValues></_>
        <_>
          <internalNodes>
            0 -1 10 7.1119861677289009e-03</internalNodes>
          <leafValues>
            -6.0883194208145142e-01 6.4199709892272949e-01</leafValues></_>
        <_>
          <internalNodes>
            0 -1 59 -6.8863362073898315e-02</internalNodes>
          <leafValues>
            8.6437743902206421e-01 -5.6770157814025879e-01</leafValues></_></weakClassifiers></_>
    <!-- stage 3 -->
    <_>
      <maxWeakCount>5</maxWeakCount>
      <stageThreshold>-5.7114446163177490e-01</stageThreshold>
      <weakClassifiers>
        <_>
          <internalNodes>
            0 -1 41 -5.8412123471498489e-03</internalNodes>
          <leafValues>
            -8.3783781528472900e-01 7.7889448404312134e-01</leafValues></_>
        <_>
          <internalNodes>
            0 -1 46 -2.4328954517841339e-02</internalNodes>
          <leafValues>
            8.2551217079162598e-01 -6.6687238216400146e-01</leafValues></_>
        <_>
          <internalNodes>
            0 -1 30 -1.2237513437867165e-02</internalNodes>
          <leafValues>
            -8.9130842685699463e-01 5.4789519309997559e-01</leafValues></_>
        <_>
          <internalNodes>
            0 -1 84 -2.3794041946530342e-02</internalNodes>
          <leafValues>
            8.9731764793395996e-01 -4.9132877588272095e-01</leafValues></_>
        <_>
          <internalNodes>
            0 -1 37 -1.6026003286242485e-02</internalNodes>
          <leafValues>
            8.7699937820434570e-01 -3.7425842881202698e-01</leafValues></_></weakClassifiers></_>
    <!-- stage 4 -->
    <_>
      <maxWeakCount>5</maxWeakCount>
      <stageThreshold>-3.4770736098289490e-01</stageThreshold>
      <weakClassifiers>
        <_>
          <internalNodes>
            0 -1 21 -3.6658376455307007e-02</internalNodes>
          <leafValues>
            9.1160219907760620e-01 -7.4545454978942871e-01</leafValues></_>
        <_>
          <internalNodes>
            0 -1 57 -5.3706146776676178e-02</internalNodes>
          <leafValues>
            9.5917141437530518e-01 -4.4196671247482300e-01</leafValues></_>
        <_>
          <internalNodes>
            0 -1 50 6.4664636738598347e-03</internalNodes>
          <leafValues>
            7.6212823390960693e-01 -7.3943513631820679e-01</leafValues></_>
        <_>
          <internalNodes>
            0 -1 20 3.3367119729518890e-02</internalNodes>
          <leafValues>
            -5.0523126125335693e-01 9.1648358106613159e-01</leafValues></_>
        <_>
          <internalNodes>
            0 -1 24 7.3868623003363609e-03</internalNodes>
          <leafValues>
            5.8281689882278442e-01 -7.9764479398727417e-01</leafValues></_></weakClassifiers></_>
    <!-- stage 5 -->
    <_>
      <maxWeakCount>7</maxWeakCount>
      <stageThreshold>-7.4520558118820190e-01</stageThreshold>
      <weakClassifiers>
        <_>
          <internalNodes>
            0 -1 5 1.0868552327156067e-01</internalNodes>
          <leafValues>
            -6.2962961196899414e-01 8.6813187599182129e-01</leafValues></_>
        <_>
          <internalNodes>
            0 -1 33 3.0433614738285542e-03</internalNodes>
          <leafValues>
            -6.8285268545150757e-01 7.8608781099319458e-01</leafValues></_>
        <_>
          <internalNodes>
            0 -1 4 1.1528963223099709e-02</internalNodes>
          <leafValues>
            -4.9273836612701416e-01 7.7461737394332886e-01</leafValues></_>
        <_>
          <internalNodes>
            0 -1 17 3.9546629413962364e-03</internalNodes>
          <leafValues>
            5.4695898294448853e-01 -8.5867714881896973e-01</leafValues></_>
        <_>
          <internalNodes>
            0 -1 81 3.8008183240890503e-02</internalNodes>
          <leafValues>
            -4.4897928833961487e-01 9.5444148778915405e-01</leafValues></_>
        <_>
          <internalNodes>
            0 -1 58 1.4793802984058857e-03</internalNodes>
          <leafValues>
            4.6669092774391174e-01 -8.5667890310287476e-01</leafValues></_>
        <_>
          <internalNodes>
            0 -1 32 5.7700071483850479e-03</internalNodes>
          <leafValues>
            4.9534440040588379e-01 -9.0857219696044922e-01</leafValues></_></weakClassifiers></_>
    <!-- stage 6 -->
    <_>
      <maxWeakCount>6</maxWeakCount>
      <stageThreshold>-2.4993823468685150e-01</stageThreshold>
      <weakClassifiers>
        <_>
          <internalNodes>
            0 -1 61 1.6713881865143776e-02</internalNodes>
          <leafValues>
            -4.9152541160583496e-01 8.6440676450729370e-01</leafValues></_>
        <_>
          <internalNodes>
            0 -1 2 1.2501862645149231e-01</internalNodes>
          <leafValues>
            -5.4861605167388916e-01 8.0744832754135132e-01</leafValues></_>
        <_>
          <internalNodes>
            0 -1 64 -1.9670631736516953e-03</internalNodes>
          <leafValues>
            -9.4200104475021362e-01 4.7147828340530396e-01</leafValues></_>
        <_>
          <internalNodes>
            0 -1 66 5.7307556271553040e-03</internalNodes>
          <leafValues>
            -6.7901396751403809e-01 6.9697630405426025e-01</leafValues></_>
        <_>
          <internalNodes>
            0 -1 68 1.9478653557598591e-03</internalNodes>
          <leafValues>
            5.6787621974945068e-01 -7.2946465015411377e-01</leafValues></_>
        <_>
          <internalNodes>
            0 -1 14 1.5424472279846668e-02</internalNodes>
          <leafValues>
            4.2986264824867249e-01 -9.3061906099319458e-01</leafValues></_></weakClassifiers></_>
    <!-- stage 7 -->
    <_>
      <maxWeakCount>7</maxWeakCount>
      <stageThreshold>-4.6905773878097534e-01</stageThreshold>
      <weakClassifiers>
        <_>
          <internalNodes>
            0 -1 48 -1.5930999070405960e-02</internalNodes>
          <leafValues>
            8.4782606363296509e-01 -6.1538463830947876e-01</leafValues></_>
        <_>
          <internalNodes>
            0 -1 62 -2.7055390179157257e-02</internalNodes>
          <leafValues>
            8.0461722612380981e-01 -4.4468075037002563e-01</leafValues></_>
        <_>
          <internalNodes>
            0 -1 35 6.2961773946881294e-03</internalNodes>
          <leafValues>
            5.7049137353897095e-01 -7.7906280755996704e-01</leafValues></_>
        <_>
          <internalNodes>
            0 -1 4 8.1645902246236801e-03</internalNodes>
          <leafValues>
            -7.2944736480712891e-01 6.1555570363998413e-01</leafValues></_>
        <_>
          <internalNodes>
            0 -1 11 -9.1145565966144204e-04</internalNodes>
          <leafValues>
            7.2396433353424072e-01 -5.7957440614700317e-01</leafValues></_>
        <_>
          <internalNodes>
            0 -1 18 -6.2194369733333588e-02</internalNodes>
          <leafValues>
            6.9647431373596191e-01 -5.4721111059188843e-01</leafValues></_>
        <_>
          <internalNodes>
            0 -1 27 -1.9200418144464493e-02</internalNodes>
          <leafValues>
            6.3306373357772827e-01 -5.9656459093093872e-01</leafValues></_></weakClassifiers></_>
    <!-- stage 8 -->
    <_>
      <maxWeakCount>4</maxWeakCount>
      <stageThreshold>8.1359706819057465e-02</stageThreshold>
      <weakClassifiers>
        <_>
          <internalNodes>
            0 -1 22 -1.3466844335198402e-02</internalNodes>
          <leafValues>
            8.9595377445220947e-01 -4.9206349253654480e-01</leafValues></_>
        <_>
          <internalNodes>
            0 -1 51 2.5609808042645454e-02</internalNodes>
          <leafValues>
            6.5416061878204346e-01 -8.5707461833953857e-01</leafValues></_>
        <_>
          <internalNodes>
            0 -1 82 8.7691787630319595e-03</internalNodes>
          <leafValues>
            -5.1845121383666992e-01 8.6558240652084351e-01</leafValues></_>
        <_>
          <internalNodes>
            0 -1 7 -1.2199003249406815e-03</internalNodes>
          <leafValues>
            -6.9197273254394531e-01 5.6093180179595947e-01</leafValues></_></weakClassifiers></_>
    <!-- stage 9 -->
    <_>
      <maxWeakCount>5</maxWeakCount>
      <stageThreshold>-6.0728371143341064e-01</stageThreshold>
      <weakClassifiers>
        <_>
          <internalNodes>
            0 -1 71 1.4761943370103836e-02</internalNodes>
          <leafValues>
            -5.7894736528396606e-01 8.7709498405456543e-01</leafValues></_>
        <_>
          <internalNodes>
            0 -1 80 -1.1103939265012741e-02</internalNodes>
          <leafValues>
            8.9604508876800537e-01 -4.1502371430397034e-01</leafValues></_>
        <_>
          <internalNodes>
            0 -1 55 -1.4543533325195313e-02</internalNodes>
          <leafValues>
            -9.0194237232208252e-01 5.4312193393707275e-01</leafValues></_>
        <_>
          <internalNodes>
            0 -1 54 9.7172623500227928e-03</internalNodes>
          <leafValues>
            -5.5286288261413574e-01 7.4626487493515015e-01</leafValues></_>
        <_>
          <internalNodes>
            0 -1 86 -7.5555038638412952e-03</internalNodes>
          <leafValues>
            -9.2545998096466064e-01 3.9642831683158875e-01</leafValues></_></weakClassifiers></_>
    <!-- stage 10 -->
    <_>
      <maxWeakCount>6</maxWeakCount>
      <stageThreshold>-8.6780846118927002e-02</stageThreshold>
      <weakClassifiers>
        <_>
          <internalNodes>
            0 -1 43 2.3880545049905777e-02</internalNodes>
          <leafValues>
            -6.6666668653488159e-01 7.8350514173507690e-01</leafValues></_>
        <_>
          <internalNodes>
            0 -1 56 3.4321375191211700e-02</internalNodes>
          <leafValues>
            -5.0105553865432739e-01 8.6877149343490601e-01</leafValues></_>
        <_>
          <internalNodes>
            0 -1 38 -1.1641309829428792e-03</internalNodes>
          <leafValues>
            6.8542438745498657e-01 -5.4431754350662231e-01</leafValues></_>
        <_>
          <internalNodes>
            0 -1 45 2.4666726589202881e-02</internalNodes>
          <leafValues>
            4.8705855011940002e-01 -9.3915975093841553e-01</leafValues></_>
        <_>
          <internalNodes>
            0 -1 83 -1.6509056091308594e-02</internalNodes>
          <leafValues>
            7.1730649471282959e-01 -6.1839884519577026e-01</leafValues></_>
        <_>
          <internalNodes>
            0 -1 36 -1.0916166007518768e-02</internalNodes>
          <leafValues>
            -8.2248747348785400e-01 5.2685725688934326e-01</leafValues></_></weakClassifiers></_>
    <!-- stage 11 -->
    <_>
      <maxWeakCount>8</maxWeakCount>
      <stageThreshold>-3.2266449928283691e-01</stageThreshold>
      <weakClassifiers>
        <_>
          <internalNodes>
            0 -1 72 -7.6841830741614103e-04</internalNodes>
          <leafValues>
            8.3246076107025146e-01 -7.7777779102325439e-01</leafValues></_>
        <_>
          <internalNodes>
            0 -1 70 1.9790135324001312e-02</internalNodes>
          <leafValues>
            -4.2164325714111328e-01 9.1944801807403564e-01</leafValues></_>
        <_>
          <internalNodes>
            0 -1 31 -1.9147761166095734e-02</internalNodes>
          <leafValues>
            -9.8538029193878174e-01 5.3484392166137695e-01</leafValues></_>
        <_>
          <internalNodes>
            0 -1 1 2.0458486396819353e-03</internalNodes>
          <leafValues>
            -6.7678254842758179e-01 6.0740876197814941e-01</leafValues></_>
        <_>
          <internalNodes>
            0 -1 53 1.4803826808929443e-02</internalNodes>
          <leafValues>
            3.9814579486846924e-01 -8.3469957113265991e-01</leafValues></_>
        <_>
          <internalNodes>
            0 -1 73 2.9642077162861824e-02</internalNodes>
          <leafValues>
            -4.5674210786819458e-01 8.8322508335113525e-01</leafValues></_>
        <_>
          <internalNodes>
            0 -1 13 2.2765737026929855e-02</internalNodes>
          <leafValues>
            4.7140130400657654e-01 -7.7729374170303345e-01</leafValues></_>
        <_>
          <internalNodes>
            0 -1 9 -2.9745741630904377e-04</internalNodes>
          <leafValues>
            6.0589021444320679e-01 -6.0257118940353394e-01</leafValues></_></weakClassifiers></_>
    <!-- stage 12 -->
    <_>
      <maxWeakCount>5</maxWeakCount>
      <stageThreshold>-6.1372554302215576e-01</stageThreshold>
      <weakClassifiers>
        <_>
          <internalNodes>
            0 -1 8 -3.9108917117118835e-03</internalNodes>
          <leafValues>
            -6.2790697813034058e-01 7.8238344192504883e-01</leafValues></_>
        <_>
          <internalNodes>
            0 -1 23 -3.4674651920795441e-02</internalNodes>
          <leafValues>
            -8.6765819787979126e-01 5.5682480335235596e-01</leafValues></_>
        <_>
          <internalNodes>
            0 -1 67 1.6187692061066628e-02</internalNodes>
          <leafValues>
            -4.8069041967391968e-01 9.5210313796997070e-01</leafValues></_>
        <_>
          <internalNodes>
            0 -1 6 -4.9550915136933327e-03</internalNodes>
          <leafValues>
            -7.0857721567153931e-01 5.4052931070327759e-01</leafValues></_>
        <_>
          <internalNodes>
            0 -1 85 -3.4990054555237293e-03</internalNodes>
          <leafValues>
            6.0898756980895996e-01 -6.0248231887817383e-01</leafValues></_></weakClassifiers></_>
    <!-- stage 13 -->
    <_>
      <maxWeakCount>5</maxWeakCount>
      <stageThreshold>-6.1683249473571777e-01</stageThreshold>
      <weakClassifiers>
        <_>
          <internalNodes>
            0 -1 28 6.3849821686744690e-02</internalNodes>
          <leafValues>
            7.2248804569244385e-01 -1.</leafValues></_>
        <_>
          <internalNodes>
            0 -1 79 -4.9859276041388512e-03</internalNodes>
          <leafValues>
            6.5663170814514160e-01 -7.3161339759826660e-01</leafValues></_>
        <_>
          <internalNodes>
            0 -1 63 -4.8510292544960976e-03</internalNodes>
          <leafValues>
            8.0930066108703613e-01 -5.6414854526519775e-01</leafValues></_>
        <_>
          <internalNodes>
            0 -1 81 3.2029457390308380e-02</internalNodes>
          <leafValues>
            -5.3304111957550049e-01 7.4349898099899292e-01</leafValues></_>
        <_>
          <internalNodes>
            0 -1 0 9.8898895084857941e-03</internalNodes>
          <leafValues>
            4.8948258161544800e-01 -8.6613786220550537e-01</leafValues></_></weakClassifiers></_>
    <!-- stage 14 -->
    <_>
      <maxWeakCount>5</maxWeakCount>
      <stageThreshold>5.7555951178073883e-02</stageThreshold>
      <weakClassifiers>
        <_>
          <internalNodes>
            0 -1 74 8.6127053946256638e-03</internalNodes>
          <leafValues>
            -4.1935482621192932e-01 8.6206895112991333e-01</leafValues></_>
        <_>
          <internalNodes>
            0 -1 19 -5.1971495151519775e-02</internalNodes>
          <leafValues>
            6.4170831441879272e-01 -7.2578966617584229e-01</leafValues></_>
        <_>
          <internalNodes>
            0 -1 49 -3.9213583804666996e-03</internalNodes>
          <leafValues>
            -9.8640495538711548e-01 4.4170674681663513e-01</leafValues></_>
        <_>
          <internalNodes>
            0 -1 69 7.4722077697515488e-03</internalNodes>
          <leafValues>
            3.5620984435081482e-01 -8.8271206617355347e-01</leafValues></_>
        <_>
          <internalNodes>
            0 -1 40 1.9993389025330544e-02</internalNodes>
          <leafValues>
            4.7464597225189209e-01 -8.1602621078491211e-01</leafValues></_></weakClassifiers></_>
    <!-- stage 15 -->
    <_>
      <maxWeakCount>7</maxWeakCount>
      <stageThreshold>-8.5430425405502319e-01</stageThreshold>
      <weakClassifiers>
        <_>
          <internalNodes>
            0 -1 52 1.4874808257445693e-03</internalNodes>
          <leafValues>
            -6.0000002384185791e-01 8.2795697450637817e-01</leafValues></_>
        <_>
          <internalNodes>
            0 -1 65 -3.2688453793525696e-02</internalNodes>
          <leafValues>
            7.6258486509323120e-01 -4.6364006400108337e-01</leafValues></_>
        <_>
          <internalNodes>
            0 -1 39 1.7328888177871704e-02</internalNodes>
          <leafValues>
            5.2619045972824097e-01 -8.8860648870468140e-01</leafValues></_>
        <_>
          <internalNodes>
            0 -1 15 1.7295872792601585e-02</internalNodes>
          <leafValues>
            3.6333781480789185e-01 -9.2473387718200684e-01</leafValues></_>
        <_>
          <internalNodes>
            0 -1 25 -3.1078150495886803e-03</internalNodes>
          <leafValues>
            6.6664993762969971e-01 -5.4234153032302856e-01</leafValues></_>
        <_>
          <internalNodes>
            0 -1 78 -2.2062598727643490e-03</internalNodes>
          <leafValues>
            6.4173829555511475e-01 -5.0478756427764893e-01</leafValues></_>
        <_>
          <internalNodes>
            0 -1 34 -8.7306927889585495e-03</internalNodes>
          <leafValues>
            -8.6608028411865234e-01 3.6693668365478516e-01</leafValues></_></weakClassifiers></_></stages>
  <features>
    <_>
      <rects>
        <_>
          0 1 3 3 -1.</_>
        <_>
          1 2 1 1 9.</_></rects>
      <tilted>0</tilted></_>
    <_>
      <rects>
        <_>
          0 1 4 2 -1.</_>
        <_>
          0 1 2 1 2.</_>
        <_>
          2 2 2 1 2.</_></rects>
      <tilted>0</tilted></_>
    <_>
      <rects>
        <_>
          0 1 20 6 -1.</_>
        <_>
          5 1 10 6 2.</_></rects>
      <tilted>0</tilted></_>
    <_>
      <rects>
        <_>
          0 1 20 7 -1.</_>
        <_>
          5 1 10 7 2.</_></rects>
      <tilted>0</tilted></_>
    <_>
      <rects>
        <_>
          0 2 4 2 -1.</_>
        <_>
          2 2 2 2 2.</_></rects>
      <tilted>0</tilted></_>
    <_>
      <rects>
        <_>
          0 2 20 7 -1.</_>
        <_>
          5 2 10 7 2.</_></rects>
      <tilted>0</tilted></_>
    <_>
      <rects>
        <_>
          0 3 1 6 -1.</_>
        <_>
          0 6 1 3 2.</_></rects>
      <tilted>0</tilted></_>
    <_>
      <rects>
        <_>
          0 3 2 3 -1.</_>
        <_>
          0 4 2 1 3.</_></rects>
      <tilted>0</tilted></_>
    <_>
      <rects>
        <_>
          0 4 12 4 -1.</_>
        <_>
          4 4 4 4 3.</_></rects>
      <tilted>0</tilted></_>
    <_>
      <rects>
        <_>
          0 6 2 4 -1.</_>
        <_>
          0 6 1 2 2.</_>
        <_>
          1 8 1 2 2.</_></rects>
      <tilted>0</tilted></_>
    <_>
      <rects>
        <_>
          0 6 8 3 -1.</_>
        <_>
          4 6 4 3 2.</_></rects>
      <tilted>0</tilted></_>
    <_>
      <rects>
        <_>
          0 7 3 3 -1.</_>
        <_>
          1 8 1 1 9.</_></rects>
      <tilted>0</tilted></_>
    <_>
      <rects>
        <_>
          1 1 4 6 -1.</_>
        <_>
          1 1 2 3 2.</_>
        <_>
          3 4 2 3 2.</_></rects>
      <tilted>0</tilted></_>
    <_>
      <rects>
        <_>
          1 7 8 3 -1.</_>
        <_>
          3 7 4 3 2.</_></rects>
      <tilted>0</tilted></_>
    <_>
      <rects>
        <_>
          1 9 12 1 -1.</_>
        <_>
          5 9 4 1 3.</_></rects>
      <tilted>0</tilted></_>
    <_>
      <rects>
        <_>
          1 9 15 1 -1.</_>
        <_>
          6 9 5 1 3.</_></rects>
      <tilted>0</tilted></_>
    <_>
      <rects>
        <_>
          2 0 11 3 -1.</_>
        <_>
          2 1 11 1 3.</_></rects>
      <tilted>0</tilted></_>
    <_>
      <rects>
        <_>
          3 0 8 1 -1.</_>
        <_>
          5 0 4 1 2.</_></rects>
      <tilted>0</tilted></_>
    <_>
      <rects>
        <_>
          3 0 10 3 -1.</_>
        <_>
          3 1 10 1 3.</_></rects>
      <tilted>0</tilted></_>
    <_>
      <rects>
        <_>
          3 1 3 9 -1.</_>
        <_>
          4 4 1 3 9.</_></rects>
      <tilted>0</tilted></_>
    <_>
      <rects>
        <_>
          3 1 4 4 -1.</_>
        <_>
          3 2 4 2 2.</_></rects>
      <tilted>0</tilted></_>
    <_>
      <rects>
        <_>
          3 2 3 6 -1.</_>
        <_>
          4 4 1 2 9.</_></rects>
      <tilted>0</tilted></_>
    <_>
      <rects>
        <_>
          3 3 3 6 -1.</_>
        <_>
          4 3 1 6 3.</_></rects>
      <tilted>0</tilted></_>
    <_>
      <rects>
        <_>
          3 4 16 1 -1.</_>
        <_>
          11 4 8 1 2.</_></rects>
      <tilted>0</tilted></_>
    <_>
      <rects>
        <_>
          3 6 15 1 -1.</_>
        <_>
          8 6 5 1 3.</_></rects>
      <tilted>0</tilted></_>
    <_>
      <rects>
        <_>
          3 8 3 2 -1.</_>
        <_>
          3 9 3 1 2.</_></rects>
      <tilted>0</tilted></_>
    <_>
      <rects>
        <_>
          4 0 3 3 -1.</_>
        <_>
          4 1 3 1 3.</_></rects>
      <tilted>0</tilted></_>
    <_>
      <rects>
        <_>
          4 0 12 10 -1.</_>
        <_>
          7 0 6 10 2.</_></rects>
      <tilted>0</tilted></_>
    <_>
      <rects>
        <_>
          4 1 9 8 -1.</_>
        <_>
          7 1 3 8 3.</_></rects>
      <tilted>0</tilted></_>
    <_>
      <rects>
        <_>
          4 4 12 6 -1.</_>
        <_>
          7 4 6 6 2.</_></rects>
      <tilted>0</tilted></_>
    <_>
      <rects>
        <_>
          4 5 12 2 -1.</_>
        <_>
          8 5 4 2 3.</_></rects>
      <tilted>0</tilted></_>
    <_>
      <rects>
        <_>
          4 8 9 2 -1.</_>
        <_>
          7 8 3 2 3.</_></rects>
      <tilted>0</tilted></_>
    <_>
      <rects>
        <_>
          4 9 15 1 -1.</_>
        <_>
          9 9 5 1 3.</_></rects>
      <tilted>0</tilted></_>
    <_>
      <rects>
        <_>
          5 3 3 7 -1.</_>
        <_>
          6 3 1 7 3.</_></rects>
      <tilted>0</tilted></_>
    <_>
      <rects>
        <_>
          5 3 9 1 -1.</_>
        <_>
          8 3 3 1 3.</_></rects>
      <tilted>0</tilted></_>
    <_>
      <rects>
        <_>
          5 4 8 2 -1.</_>
        <_>
          5 4 4 1 2.</_>
        <_>
          9 5 4 1 2.</_></rects>
      <tilted>0</tilted></_>
    <_>
      <rects>
        <_>
          5 5 8 4 -1.</_>
        <_>
          9 5 4 4 2.</_></rects>
      <tilted>0</tilted></_>
    <_>
      <rects>
        <_>
          6 0 2 8 -1.</_>
        <_>
          6 0 1 4 2.</_>
        <_>
          7 4 1 4 2.</_></rects>
      <tilted>0</tilted></_>
    <_>
      <rects>
        <_>
          6 2 2 2 -1.</_>
        <_>
          6 2 1 1 2.</_>
        <_>
          7 3 1 1 2.</_></rects>
      <tilted>0</tilted></_>
    <_>
      <rects>
        <_>
          6 4 8 2 -1.</_>
        <_>
          10 4 4 2 2.</_></rects>
      <tilted>0</tilted></_>
    <_>
      <rects>
        <_>
          6 4 8 6 -1.</_>
        <_>
          10 4 4 6 2.</_></rects>
      <tilted>0</tilted></_>
    <_>
      <rects>
        <_>
          6 5 12 2 -1.</_>
        <_>
          10 5 4 2 3.</_></rects>
      <tilted>0</tilted></_>
    <_>
      <rects>
        <_>
          7 0 6 1 -1.</_>
        <_>
          9 0 2 1 3.</_></rects>
      <tilted>0</tilted></_>
    <_>
      <rects>
        <_>
          7 1 2 4 -1.</_>
        <_>
          7 1 2 2 2.</_></rects>
      <tilted>1</tilted></_>
    <_>
      <rects>
        <_>
          7 2 3 6 -1.</_>
        <_>
          8 4 1 2 9.</_></rects>
      <tilted>0</tilted></_>
    <_>
      <rects>
        <_>
          7 2 8 4 -1.</_>
        <_>
          11 2 4 4 2.</_></rects>
      <tilted>0</tilted></_>
    <_>
      <rects>
        <_>
          7 3 3 4 -1.</_>
        <_>
          8 3 1 4 3.</_></rects>
      <tilted>0</tilted></_>
    <_>
      <rects>
        <_>
          7 3 3 5 -1.</_>
        <_>
          8 3 1 5 3.</_></rects>
      <tilted>0</tilted></_>
    <_>
      <rects>
        <_>
          7 5 3 3 -1.</_>
        <_>
          8 6 1 1 9.</_></rects>
      <tilted>0</tilted></_>
    <_>
      <rects>
        <_>
          7 9 3 1 -1.</_>
        <_>
          8 9 1 1 3.</_></rects>
      <tilted>0</tilted></_>
    <_>
      <rects>
        <_>
          8 0 9 1 -1.</_>
        <_>
          11 0 3 1 3.</_></rects>
      <tilted>0</tilted></_>
    <_>
      <rects>
        <_>
          8 1 8 8 -1.</_>
        <_>
          8 1 4 4 2.</_>
        <_>
          12 5 4 4 2.</_></rects>
      <tilted>0</tilted></_>
    <_>
      <rects>
        <_>
          8 6 12 2 -1.</_>
        <_>
          12 6 4 2 3.</_></rects>
      <tilted>0</tilted></_>
    <_>
      <rects>
        <_>
          8 6 8 4 -1.</_>
        <_>
          12 6 4 4 2.</_></rects>
      <tilted>0</tilted></_>
    <_>
      <rects>
        <_>
          8 6 8 4 -1.</_>
        <_>
          8 7 8 2 2.</_></rects>
      <tilted>0</tilted></_>
    <_>
      <rects>
        <_>
          9 0 6 2 -1.</_>
        <_>
          11 0 2 2 3.</_></rects>
      <tilted>0</tilted></_>
    <_>
      <rects>
        <_>
          9 2 3 6 -1.</_>
        <_>
          10 2 1 6 3.</_></rects>
      <tilted>0</tilted></_>
    <_>
      <rects>
        <_>
          9 2 6 5 -1.</_>
        <_>
          11 2 2 5 3.</_></rects>
      <tilted>0</tilted></_>
    <_>
      <rects>
        <_>
          9 9 4 1 -1.</_>
        <_>
          10 9 2 1 2.</_></rects>
      <tilted>0</tilted></_>
    <_>
      <rects>
        <_>
          10 0 9 4 -1.</_>
        <_>
          10 1 9 2 2.</_></rects>
      <tilted>0</tilted></_>
    <_>
      <rects>
        <_>
          10 2 4 6 -1.</_>
        <_>
          11 2 2 6 2.</_></rects>
      <tilted>0</tilted></_>
    <_>
      <rects>
        <_>
          10 2 4 1 -1.</_>
        <_>
          10 2 2 1 2.</_></rects>
      <tilted>1</tilted></_>
    <_>
      <rects>
        <_>
          10 2 2 4 -1.</_>
        <_>
          9 3 2 2 2.</_></rects>
      <tilted>1</tilted></_>
    <_>
      <rects>
        <_>
          10 7 1 2 -1.</_>
        <_>
          10 8 1 1 2.</_></rects>
      <tilted>0</tilted></_>
    <_>
      <rects>
        <_>
          10 9 2 1 -1.</_>
        <_>
          11 9 1 1 2.</_></rects>
      <tilted>0</tilted></_>
    <_>
      <rects>
        <_>
          11 1 3 7 -1.</_>
        <_>
          12 1 1 7 3.</_></rects>
      <tilted>0</tilted></_>
    <_>
      <rects>
        <_>
          11 3 2 1 -1.</_>
        <_>
          11 3 1 1 2.</_></rects>
      <tilted>1</tilted></_>
    <_>
      <rects>
        <_>
          11 3 4 1 -1.</_>
        <_>
          13 3 2 1 2.</_></rects>
      <tilted>0</tilted></_>
    <_>
      <rects>
        <_>
          11 6 1 3 -1.</_>
        <_>
          10 7 1 1 3.</_></rects>
      <tilted>1</tilted></_>
    <_>
      <rects>
        <_>
          11 9 9 1 -1.</_>
        <_>
          14 9 3 1 3.</_></rects>
      <tilted>0</tilted></_>
    <_>
      <rects>
        <_>
          12 3 4 2 -1.</_>
        <_>
          13 3 2 2 2.</_></rects>
      <tilted>0</tilted></_>
    <_>
      <rects>
        <_>
          12 4 4 4 -1.</_>
        <_>
          13 4 2 4 2.</_></rects>
      <tilted>0</tilted></_>
    <_>
      <rects>
        <_>
          12 6 2 4 -1.</_>
        <_>
          12 6 1 2 2.</_>
        <_>
          13 8 1 2 2.</_></rects>
      <tilted>0</tilted></_>
    <_>
      <rects>
        <_>
          12 6 6 4 -1.</_>
        <_>
          12 7 6 2 2.</_></rects>
      <tilted>0</tilted></_>
    <_>
      <rects>
        <_>
          13 4 2 6 -1.</_>
        <_>
          13 6 2 2 3.</_></rects>
      <tilted>0</tilted></_>
    <_>
      <rects>
        <_>
          13 5 6 2 -1.</_>
        <_>
          13 5 3 1 2.</_>
        <_>
          16 6 3 1 2.</_></rects>
      <tilted>0</tilted></_>
    <_>
      <rects>
        <_>
          13 6 4 1 -1.</_>
        <_>
          15 6 2 1 2.</_></rects>
      <tilted>0</tilted></_>
    <_>
      <rects>
        <_>
          14 3 1 2 -1.</_>
        <_>
          14 3 1 1 2.</_></rects>
      <tilted>1</tilted></_>
    <_>
      <rects>
        <_>
          14 7 3 1 -1.</_>
        <_>
          15 7 1 1 3.</_></rects>
      <tilted>0</tilted></_>
    <_>
      <rects>
        <_>
          14 7 6 2 -1.</_>
        <_>
          17 7 3 2 2.</_></rects>
      <tilted>0</tilted></_>
    <_>
      <rects>
        <_>
          15 2 4 1 -1.</_>
        <_>
          16 3 2 1 2.</_></rects>
      <tilted>1</tilted></_>
    <_>
      <rects>
        <_>
          16 1 4 6 -1.</_>
        <_>
          16 1 2 3 2.</_>
        <_>
          18 4 2 3 2.</_></rects>
      <tilted>0</tilted></_>
    <_>
      <rects>
        <_>
          16 5 4 3 -1.</_>
        <_>
          17 5 2 3 2.</_></rects>
      <tilted>0</tilted></_>
    <_>
      <rects>
        <_>
          16 5 4 4 -1.</_>
        <_>
          16 5 2 2 2.</_>
        <_>
          18 7 2 2 2.</_></rects>
      <tilted>0</tilted></_>
    <_>
      <rects>
        <_>
          17 2 3 3 -1.</_>
        <_>
          16 3 3 1 3.</_></rects>
      <tilted>1</tilted></_>
    <_>
      <rects>
        <_>
          18 1 2 7 -1.</_>
        <_>
          19 1 1 7 2.</_></rects>
      <tilted>0</tilted></_>
    <_>
      <rects>
        <_>
          19 3 1 4 -1.</_>
        <_>
          19 5 1 2 2.</_></rects>
      <tilted>0</tilted></_></features></cascade>
</opencv_storage>
