<?xml version="1.0"?>
<opencv_storage>
<cascade>
  <stageType>BOOST</stageType>
  <featureType>HAAR</featureType>
  <height>20</height>
  <width>20</width>
  <stageParams>
    <boostType>GAB</boostType>
    <minHitRate>9.9500000476837158e-001</minHitRate>
    <maxFalseAlarm>4.0000000596046448e-001</maxFalseAlarm>
    <weightTrimRate>9.4999999999999996e-001</weightTrimRate>
    <maxDepth>1</maxDepth>
    <maxWeakCount>100</maxWeakCount></stageParams>
  <featureParams>
    <maxCatCount>0</maxCatCount>
    <featSize>1</featSize>
    <mode>ALL</mode></featureParams>
  <stageNum>16</stageNum>
  <stages>
    <!-- stage 0 -->
    <_>
      <maxWeakCount>3</maxWeakCount>
      <stageThreshold>-1.2247008085250854e+000</stageThreshold>
      <weakClassifiers>
        <_>
          <internalNodes>
            0 -1 10 3.9797790348529816e-002</internalNodes>
          <leafValues>
            -9.1111111640930176e-001 8.1538462638854980e-001</leafValues></_>
        <_>
          <internalNodes>
            0 -1 18 -1.0897373780608177e-002</internalNodes>
          <leafValues>
            7.5185418128967285e-001 -8.4130239486694336e-001</leafValues></_>
        <_>
          <internalNodes>
            0 -1 49 3.6788597702980042e-002</internalNodes>
          <leafValues>
            -9.0407484769821167e-001 5.2771264314651489e-001</leafValues></_></weakClassifiers></_>
    <!-- stage 1 -->
    <_>
      <maxWeakCount>3</maxWeakCount>
      <stageThreshold>-7.9704022407531738e-001</stageThreshold>
      <weakClassifiers>
        <_>
          <internalNodes>
            0 -1 61 5.0754055380821228e-002</internalNodes>
          <leafValues>
            -7.9591834545135498e-001 8.7272727489471436e-001</leafValues></_>
        <_>
          <internalNodes>
            0 -1 70 4.0338188409805298e-002</internalNodes>
          <leafValues>
            -6.5015023946762085e-001 8.2224100828170776e-001</leafValues></_>
        <_>
          <internalNodes>
            0 -1 52 1.6956191509962082e-002</internalNodes>
          <leafValues>
            -7.2633355855941772e-001 6.4902836084365845e-001</leafValues></_></weakClassifiers></_>
    <!-- stage 2 -->
    <_>
      <maxWeakCount>5</maxWeakCount>
      <stageThreshold>-1.0211983919143677e+000</stageThreshold>
      <weakClassifiers>
        <_>
          <internalNodes>
            0 -1 36 -6.8201556801795959e-002</internalNodes>
          <leafValues>
            7.6377952098846436e-001 -8.5964912176132202e-001</leafValues></_>
        <_>
          <internalNodes>
            0 -1 13 3.8263250142335892e-002</internalNodes>
          <leafValues>
            -7.1354228258132935e-001 6.0540235042572021e-001</leafValues></_>
        <_>
          <internalNodes>
            0 -1 5 3.4262850880622864e-002</internalNodes>
          <leafValues>
            -7.1366584300994873e-001 5.5325764417648315e-001</leafValues></_>
        <_>
          <internalNodes>
            0 -1 39 -4.0060933679342270e-002</internalNodes>
          <leafValues>
            5.8034992218017578e-001 -6.6952031850814819e-001</leafValues></_>
        <_>
          <internalNodes>
            0 -1 53 -2.0152505487203598e-002</internalNodes>
          <leafValues>
            7.0994174480438232e-001 -5.8161455392837524e-001</leafValues></_></weakClassifiers></_>
    <!-- stage 3 -->
    <_>
      <maxWeakCount>4</maxWeakCount>
      <stageThreshold>-7.6571840047836304e-001</stageThreshold>
      <weakClassifiers>
        <_>
          <internalNodes>
            0 -1 32 -2.1326866745948792e-001</internalNodes>
          <leafValues>
            7.8571426868438721e-001 -7.6954734325408936e-001</leafValues></_>
        <_>
          <internalNodes>
            0 -1 17 -1.9448952516540885e-003</internalNodes>
          <leafValues>
            3.9062231779098511e-001 -8.4926497936248779e-001</leafValues></_>
        <_>
          <internalNodes>
            0 -1 21 -2.4715214967727661e-003</internalNodes>
          <leafValues>
            -9.6888166666030884e-001 3.3295875787734985e-001</leafValues></_>
        <_>
          <internalNodes>
            0 -1 46 6.4882665872573853e-002</internalNodes>
          <leafValues>
            -6.7561089992523193e-001 5.2013516426086426e-001</leafValues></_></weakClassifiers></_>
    <!-- stage 4 -->
    <_>
      <maxWeakCount>4</maxWeakCount>
      <stageThreshold>-5.7697051763534546e-001</stageThreshold>
      <weakClassifiers>
        <_>
          <internalNodes>
            0 -1 25 2.8720229864120483e-002</internalNodes>
          <leafValues>
            -7.2727274894714355e-001 6.8141591548919678e-001</leafValues></_>
        <_>
          <internalNodes>
            0 -1 20 2.0552985370159149e-003</internalNodes>
          <leafValues>
            2.9002922773361206e-001 -9.7269403934478760e-001</leafValues></_>
        <_>
          <internalNodes>
            0 -1 72 1.2889418751001358e-002</internalNodes>
          <leafValues>
            -5.0572830438613892e-001 7.0287793874740601e-001</leafValues></_>
        <_>
          <internalNodes>
            0 -1 38 2.4045729078352451e-003</internalNodes>
          <leafValues>
            -9.6294766664505005e-001 3.6600133776664734e-001</leafValues></_></weakClassifiers></_>
    <!-- stage 5 -->
    <_>
      <maxWeakCount>4</maxWeakCount>
      <stageThreshold>-8.2276427745819092e-001</stageThreshold>
      <weakClassifiers>
        <_>
          <internalNodes>
            0 -1 34 -8.3256468176841736e-002</internalNodes>
          <leafValues>
            7.4468082189559937e-001 -6.4750957489013672e-001</leafValues></_>
        <_>
          <internalNodes>
            0 -1 54 -4.9368264153599739e-003</internalNodes>
          <leafValues>
            3.5447451472282410e-001 -9.0789574384689331e-001</leafValues></_>
        <_>
          <internalNodes>
            0 -1 3 6.1923876404762268e-002</internalNodes>
          <leafValues>
            -7.1247911453247070e-001 4.1738986968994141e-001</leafValues></_>
        <_>
          <internalNodes>
            0 -1 14 -2.3791950661689043e-003</internalNodes>
          <leafValues>
            -9.8928010463714600e-001 3.1525120139122009e-001</leafValues></_></weakClassifiers></_>
    <!-- stage 6 -->
    <_>
      <maxWeakCount>5</maxWeakCount>
      <stageThreshold>-9.2863869667053223e-001</stageThreshold>
      <weakClassifiers>
        <_>
          <internalNodes>
            0 -1 62 7.3937803506851196e-002</internalNodes>
          <leafValues>
            -6.5217393636703491e-001 6.4705884456634521e-001</leafValues></_>
        <_>
          <internalNodes>
            0 -1 16 8.0768699990585446e-004</internalNodes>
          <leafValues>
            -6.5767872333526611e-001 3.8969007134437561e-001</leafValues></_>
        <_>
          <internalNodes>
            0 -1 64 -4.7648460167692974e-005</internalNodes>
          <leafValues>
            3.0485385656356812e-001 -8.0682247877120972e-001</leafValues></_>
        <_>
          <internalNodes>
            0 -1 41 -4.9120657145977020e-002</internalNodes>
          <leafValues>
            6.8845862150192261e-001 -4.3437600135803223e-001</leafValues></_>
        <_>
          <internalNodes>
            0 -1 43 -1.5870388597249985e-002</internalNodes>
          <leafValues>
            5.7561081647872925e-001 -5.3663265705108643e-001</leafValues></_></weakClassifiers></_>
    <!-- stage 7 -->
    <_>
      <maxWeakCount>6</maxWeakCount>
      <stageThreshold>-1.5588165521621704e+000</stageThreshold>
      <weakClassifiers>
        <_>
          <internalNodes>
            0 -1 58 -3.2439067959785461e-002</internalNodes>
          <leafValues>
            5.2212387323379517e-001 -6.5289258956909180e-001</leafValues></_>
        <_>
          <internalNodes>
            0 -1 23 -3.7110424600541592e-003</internalNodes>
          <leafValues>
            6.4012467861175537e-001 -5.2443784475326538e-001</leafValues></_>
        <_>
          <internalNodes>
            0 -1 4 1.4758743054699153e-004</internalNodes>
          <leafValues>
            -5.3218656778335571e-001 5.3462225198745728e-001</leafValues></_>
        <_>
          <internalNodes>
            0 -1 0 1.9060611724853516e-002</internalNodes>
          <leafValues>
            -8.1027966737747192e-001 3.7207695841789246e-001</leafValues></_>
        <_>
          <internalNodes>
            0 -1 65 -2.8364971512928605e-004</internalNodes>
          <leafValues>
            4.8518538475036621e-001 -6.5483552217483521e-001</leafValues></_>
        <_>
          <internalNodes>
            0 -1 67 -9.3460513744503260e-004</internalNodes>
          <leafValues>
            3.4899744391441345e-001 -7.0656186342239380e-001</leafValues></_></weakClassifiers></_>
    <!-- stage 8 -->
    <_>
      <maxWeakCount>4</maxWeakCount>
      <stageThreshold>-4.5096555352210999e-001</stageThreshold>
      <weakClassifiers>
        <_>
          <internalNodes>
            0 -1 28 3.6081783473491669e-002</internalNodes>
          <leafValues>
            -6.3779526948928833e-001 6.2376236915588379e-001</leafValues></_>
        <_>
          <internalNodes>
            0 -1 15 1.5943571925163269e-003</internalNodes>
          <leafValues>
            3.1788310408592224e-001 -9.7293275594711304e-001</leafValues></_>
        <_>
          <internalNodes>
            0 -1 12 -3.1805012375116348e-002</internalNodes>
          <leafValues>
            6.4661395549774170e-001 -4.8184421658515930e-001</leafValues></_>
        <_>
          <internalNodes>
            0 -1 68 -3.3174003474414349e-003</internalNodes>
          <leafValues>
            3.8004902005195618e-001 -6.8914288282394409e-001</leafValues></_></weakClassifiers></_>
    <!-- stage 9 -->
    <_>
      <maxWeakCount>6</maxWeakCount>
      <stageThreshold>-9.7688776254653931e-001</stageThreshold>
      <weakClassifiers>
        <_>
          <internalNodes>
            0 -1 59 -2.5637021288275719e-002</internalNodes>
          <leafValues>
            3.4328359365463257e-001 -6.5610861778259277e-001</leafValues></_>
        <_>
          <internalNodes>
            0 -1 71 1.0915910825133324e-002</internalNodes>
          <leafValues>
            -4.2720806598663330e-001 6.9725239276885986e-001</leafValues></_>
        <_>
          <internalNodes>
            0 -1 27 2.8794403187930584e-003</internalNodes>
          <leafValues>
            2.9344293475151062e-001 -9.8655927181243896e-001</leafValues></_>
        <_>
          <internalNodes>
            0 -1 56 -5.3402511402964592e-003</internalNodes>
          <leafValues>
            3.0067574977874756e-001 -8.0841815471649170e-001</leafValues></_>
        <_>
          <internalNodes>
            0 -1 74 -3.8716464769095182e-004</internalNodes>
          <leafValues>
            2.9652953147888184e-001 -7.5088286399841309e-001</leafValues></_>
        <_>
          <internalNodes>
            0 -1 63 1.6497619217261672e-003</internalNodes>
          <leafValues>
            -7.8421926498413086e-001 4.3491744995117188e-001</leafValues></_></weakClassifiers></_>
    <!-- stage 10 -->
    <_>
      <maxWeakCount>6</maxWeakCount>
      <stageThreshold>-9.3678867816925049e-001</stageThreshold>
      <weakClassifiers>
        <_>
          <internalNodes>
            0 -1 26 1.1514499783515930e-002</internalNodes>
          <leafValues>
            -6.6519826650619507e-001 4.0625000000000000e-001</leafValues></_>
        <_>
          <internalNodes>
            0 -1 66 6.7673518788069487e-004</internalNodes>
          <leafValues>
            -5.1897698640823364e-001 4.7528108954429626e-001</leafValues></_>
        <_>
          <internalNodes>
            0 -1 55 -2.6577659882605076e-003</internalNodes>
          <leafValues>
            4.1965803503990173e-001 -5.4025846719741821e-001</leafValues></_>
        <_>
          <internalNodes>
            0 -1 77 -7.2204609750770032e-005</internalNodes>
          <leafValues>
            3.9918488264083862e-001 -6.3756752014160156e-001</leafValues></_>
        <_>
          <internalNodes>
            0 -1 76 -7.8338049352169037e-003</internalNodes>
          <leafValues>
            -9.0664422512054443e-001 3.3534863591194153e-001</leafValues></_>
        <_>
          <internalNodes>
            0 -1 22 -1.9609548151493073e-002</internalNodes>
          <leafValues>
            -9.0680503845214844e-001 2.4408754706382751e-001</leafValues></_></weakClassifiers></_>
    <!-- stage 11 -->
    <_>
      <maxWeakCount>7</maxWeakCount>
      <stageThreshold>-1.3618373870849609e+000</stageThreshold>
      <weakClassifiers>
        <_>
          <internalNodes>
            0 -1 73 2.7045369148254395e-002</internalNodes>
          <leafValues>
            -5.3623187541961670e-001 6.2025314569473267e-001</leafValues></_>
        <_>
          <internalNodes>
            0 -1 6 1.7481974791735411e-003</internalNodes>
          <leafValues>
            -7.0531666278839111e-001 3.9451560378074646e-001</leafValues></_>
        <_>
          <internalNodes>
            0 -1 7 -5.6084645912051201e-003</internalNodes>
          <leafValues>
            -8.5694110393524170e-001 2.7502599358558655e-001</leafValues></_>
        <_>
          <internalNodes>
            0 -1 30 4.9152253195643425e-003</internalNodes>
          <leafValues>
            -7.4746274948120117e-001 3.2624265551567078e-001</leafValues></_>
        <_>
          <internalNodes>
            0 -1 57 -1.2817094102501869e-003</internalNodes>
          <leafValues>
            6.2065118551254272e-001 -4.0150439739227295e-001</leafValues></_>
        <_>
          <internalNodes>
            0 -1 31 3.8975002244114876e-003</internalNodes>
          <leafValues>
            2.7495604753494263e-001 -9.2525142431259155e-001</leafValues></_>
        <_>
          <internalNodes>
            0 -1 51 -5.6051542051136494e-003</internalNodes>
          <leafValues>
            3.5932919383049011e-001 -5.9500914812088013e-001</leafValues></_></weakClassifiers></_>
    <!-- stage 12 -->
    <_>
      <maxWeakCount>4</maxWeakCount>
      <stageThreshold>-5.8728027343750000e-001</stageThreshold>
      <weakClassifiers>
        <_>
          <internalNodes>
            0 -1 24 -1.1772660072892904e-003</internalNodes>
          <leafValues>
            3.5947713255882263e-001 -7.6237624883651733e-001</leafValues></_>
        <_>
          <internalNodes>
            0 -1 75 -8.7897274643182755e-003</internalNodes>
          <leafValues>
            3.5166692733764648e-001 -6.2943834066390991e-001</leafValues></_>
        <_>
          <internalNodes>
            0 -1 47 -4.1834637522697449e-003</internalNodes>
          <leafValues>
            -9.0693420171737671e-001 2.5160196423530579e-001</leafValues></_>
        <_>
          <internalNodes>
            0 -1 78 1.7579630948603153e-003</internalNodes>
          <leafValues>
            -3.9149013161659241e-001 6.4685434103012085e-001</leafValues></_></weakClassifiers></_>
    <!-- stage 13 -->
    <_>
      <maxWeakCount>5</maxWeakCount>
      <stageThreshold>-1.1976331472396851e+000</stageThreshold>
      <weakClassifiers>
        <_>
          <internalNodes>
            0 -1 60 1.1394748091697693e-001</internalNodes>
          <leafValues>
            -7.2222220897674561e-001 4.1007193922996521e-001</leafValues></_>
        <_>
          <internalNodes>
            0 -1 29 1.7955774092115462e-004</internalNodes>
          <leafValues>
            -9.4934594631195068e-001 2.4614217877388000e-001</leafValues></_>
        <_>
          <internalNodes>
            0 -1 35 1.2256393209099770e-002</internalNodes>
          <leafValues>
            -5.2471137046813965e-001 5.6998014450073242e-001</leafValues></_>
        <_>
          <internalNodes>
            0 -1 2 1.0828581871464849e-003</internalNodes>
          <leafValues>
            -5.1502615213394165e-001 5.4748171567916870e-001</leafValues></_>
        <_>
          <internalNodes>
            0 -1 19 3.5261528100818396e-003</internalNodes>
          <leafValues>
            3.1818440556526184e-001 -8.4143263101577759e-001</leafValues></_></weakClassifiers></_>
    <!-- stage 14 -->
    <_>
      <maxWeakCount>6</maxWeakCount>
      <stageThreshold>-7.4493455886840820e-001</stageThreshold>
      <weakClassifiers>
        <_>
          <internalNodes>
            0 -1 48 2.6668515056371689e-002</internalNodes>
          <leafValues>
            -5.4676258563995361e-001 6.8831169605255127e-001</leafValues></_>
        <_>
          <internalNodes>
            0 -1 69 -5.1193693652749062e-003</internalNodes>
          <leafValues>
            4.5130345225334167e-001 -5.7212620973587036e-001</leafValues></_>
        <_>
          <internalNodes>
            0 -1 45 -4.1349491220898926e-004</internalNodes>
          <leafValues>
            -8.2803440093994141e-001 2.5360846519470215e-001</leafValues></_>
        <_>
          <internalNodes>
            0 -1 9 2.7084802277386189e-003</internalNodes>
          <leafValues>
            2.5689980387687683e-001 -8.7134855985641479e-001</leafValues></_>
        <_>
          <internalNodes>
            0 -1 11 7.1373640093952417e-004</internalNodes>
          <leafValues>
            -5.4206699132919312e-001 4.3984150886535645e-001</leafValues></_>
        <_>
          <internalNodes>
            0 -1 42 -4.3761441484093666e-003</internalNodes>
          <leafValues>
            6.1006599664688110e-001 -4.6856197714805603e-001</leafValues></_></weakClassifiers></_>
    <!-- stage 15 -->
    <_>
      <maxWeakCount>7</maxWeakCount>
      <stageThreshold>-1.1063575744628906e+000</stageThreshold>
      <weakClassifiers>
        <_>
          <internalNodes>
            0 -1 1 -5.1208580844104290e-003</internalNodes>
          <leafValues>
            3.3333334326744080e-001 -6.9668245315551758e-001</leafValues></_>
        <_>
          <internalNodes>
            0 -1 37 -2.0657882094383240e-001</internalNodes>
          <leafValues>
            8.4132122993469238e-001 -3.9757117629051208e-001</leafValues></_>
        <_>
          <internalNodes>
            0 -1 40 -1.0208594612777233e-002</internalNodes>
          <leafValues>
            -8.4215295314788818e-001 3.1271842122077942e-001</leafValues></_>
        <_>
          <internalNodes>
            0 -1 44 -1.3311257585883141e-002</internalNodes>
          <leafValues>
            -9.4740134477615356e-001 2.4837678670883179e-001</leafValues></_>
        <_>
          <internalNodes>
            0 -1 8 -1.0500788688659668e-002</internalNodes>
          <leafValues>
            7.8522032499313354e-001 -4.0144279599189758e-001</leafValues></_>
        <_>
          <internalNodes>
            0 -1 33 -8.7133701890707016e-004</internalNodes>
          <leafValues>
            4.8461234569549561e-001 -5.2975004911422729e-001</leafValues></_>
        <_>
          <internalNodes>
            0 -1 50 -4.9347302410751581e-004</internalNodes>
          <leafValues>
            3.5799372196197510e-001 -7.1243208646774292e-001</leafValues></_></weakClassifiers></_></stages>
  <features>
    <_>
      <rects>
        <_>
          0 4 12 4 -1.</_>
        <_>
          4 4 4 4 3.</_></rects>
      <tilted>0</tilted></_>
    <_>
      <rects>
        <_>
          0 8 3 12 -1.</_>
        <_>
          0 12 3 4 3.</_></rects>
      <tilted>0</tilted></_>
    <_>
      <rects>
        <_>
          0 12 6 1 -1.</_>
        <_>
          3 12 3 1 2.</_></rects>
      <tilted>0</tilted></_>
    <_>
      <rects>
        <_>
          1 5 12 10 -1.</_>
        <_>
          1 5 6 5 2.</_>
        <_>
          7 10 6 5 2.</_></rects>
      <tilted>0</tilted></_>
    <_>
      <rects>
        <_>
          2 0 1 2 -1.</_>
        <_>
          2 0 1 1 2.</_></rects>
      <tilted>1</tilted></_>
    <_>
      <rects>
        <_>
          2 8 11 8 -1.</_>
        <_>
          2 10 11 4 2.</_></rects>
      <tilted>0</tilted></_>
    <_>
      <rects>
        <_>
          3 1 4 6 -1.</_>
        <_>
          3 1 2 3 2.</_>
        <_>
          5 4 2 3 2.</_></rects>
      <tilted>0</tilted></_>
    <_>
      <rects>
        <_>
          3 1 12 2 -1.</_>
        <_>
          7 1 4 2 3.</_></rects>
      <tilted>0</tilted></_>
    <_>
      <rects>
        <_>
          3 1 14 2 -1.</_>
        <_>
          3 2 14 1 2.</_></rects>
      <tilted>0</tilted></_>
    <_>
      <rects>
        <_>
          3 7 3 4 -1.</_>
        <_>
          3 9 3 2 2.</_></rects>
      <tilted>0</tilted></_>
    <_>
      <rects>
        <_>
          3 7 6 9 -1.</_>
        <_>
          6 7 3 9 2.</_></rects>
      <tilted>0</tilted></_>
    <_>
      <rects>
        <_>
          3 7 7 2 -1.</_>
        <_>
          3 8 7 1 2.</_></rects>
      <tilted>0</tilted></_>
    <_>
      <rects>
        <_>
          3 8 6 6 -1.</_>
        <_>
          5 8 2 6 3.</_></rects>
      <tilted>0</tilted></_>
    <_>
      <rects>
        <_>
          3 10 6 5 -1.</_>
        <_>
          6 10 3 5 2.</_></rects>
      <tilted>0</tilted></_>
    <_>
      <rects>
        <_>
          4 0 6 3 -1.</_>
        <_>
          6 0 2 3 3.</_></rects>
      <tilted>0</tilted></_>
    <_>
      <rects>
        <_>
          4 1 6 1 -1.</_>
        <_>
          6 1 2 1 3.</_></rects>
      <tilted>0</tilted></_>
    <_>
      <rects>
        <_>
          4 1 16 4 -1.</_>
        <_>
          8 1 8 4 2.</_></rects>
      <tilted>0</tilted></_>
    <_>
      <rects>
        <_>
          4 3 4 1 -1.</_>
        <_>
          4 3 2 1 2.</_></rects>
      <tilted>1</tilted></_>
    <_>
      <rects>
        <_>
          4 7 12 1 -1.</_>
        <_>
          8 7 4 1 3.</_></rects>
      <tilted>0</tilted></_>
    <_>
      <rects>
        <_>
          4 7 4 4 -1.</_>
        <_>
          4 8 4 2 2.</_></rects>
      <tilted>0</tilted></_>
    <_>
      <rects>
        <_>
          5 0 8 2 -1.</_>
        <_>
          7 0 4 2 2.</_></rects>
      <tilted>0</tilted></_>
    <_>
      <rects>
        <_>
          5 0 9 1 -1.</_>
        <_>
          8 0 3 1 3.</_></rects>
      <tilted>0</tilted></_>
    <_>
      <rects>
        <_>
          5 1 12 7 -1.</_>
        <_>
          11 1 6 7 2.</_></rects>
      <tilted>0</tilted></_>
    <_>
      <rects>
        <_>
          5 2 11 3 -1.</_>
        <_>
          5 3 11 1 3.</_></rects>
      <tilted>0</tilted></_>
    <_>
      <rects>
        <_>
          5 5 1 6 -1.</_>
        <_>
          5 8 1 3 2.</_></rects>
      <tilted>0</tilted></_>
    <_>
      <rects>
        <_>
          5 5 4 8 -1.</_>
        <_>
          5 5 2 4 2.</_>
        <_>
          7 9 2 4 2.</_></rects>
      <tilted>0</tilted></_>
    <_>
      <rects>
        <_>
          5 6 3 4 -1.</_>
        <_>
          6 6 1 4 3.</_></rects>
      <tilted>0</tilted></_>
    <_>
      <rects>
        <_>
          5 7 12 2 -1.</_>
        <_>
          5 7 6 1 2.</_>
        <_>
          11 8 6 1 2.</_></rects>
      <tilted>0</tilted></_>
    <_>
      <rects>
        <_>
          5 8 4 9 -1.</_>
        <_>
          6 8 2 9 2.</_></rects>
      <tilted>0</tilted></_>
    <_>
      <rects>
        <_>
          5 8 5 2 -1.</_>
        <_>
          5 9 5 1 2.</_></rects>
      <tilted>0</tilted></_>
    <_>
      <rects>
        <_>
          5 8 6 4 -1.</_>
        <_>
          5 10 6 2 2.</_></rects>
      <tilted>0</tilted></_>
    <_>
      <rects>
        <_>
          6 0 6 3 -1.</_>
        <_>
          9 0 3 3 2.</_></rects>
      <tilted>0</tilted></_>
    <_>
      <rects>
        <_>
          6 4 9 9 -1.</_>
        <_>
          9 7 3 3 9.</_></rects>
      <tilted>0</tilted></_>
    <_>
      <rects>
        <_>
          6 5 4 2 -1.</_>
        <_>
          6 5 2 1 2.</_>
        <_>
          8 6 2 1 2.</_></rects>
      <tilted>0</tilted></_>
    <_>
      <rects>
        <_>
          6 5 8 6 -1.</_>
        <_>
          8 5 4 6 2.</_></rects>
      <tilted>0</tilted></_>
    <_>
      <rects>
        <_>
          6 5 6 1 -1.</_>
        <_>
          6 5 3 1 2.</_></rects>
      <tilted>1</tilted></_>
    <_>
      <rects>
        <_>
          6 5 9 6 -1.</_>
        <_>
          9 5 3 6 3.</_></rects>
      <tilted>0</tilted></_>
    <_>
      <rects>
        <_>
          6 6 9 6 -1.</_>
        <_>
          9 8 3 2 9.</_></rects>
      <tilted>0</tilted></_>
    <_>
      <rects>
        <_>
          6 7 8 3 -1.</_>
        <_>
          8 9 4 3 2.</_></rects>
      <tilted>1</tilted></_>
    <_>
      <rects>
        <_>
          7 4 6 12 -1.</_>
        <_>
          9 4 2 12 3.</_></rects>
      <tilted>0</tilted></_>
    <_>
      <rects>
        <_>
          7 5 3 4 -1.</_>
        <_>
          8 6 1 4 3.</_></rects>
      <tilted>1</tilted></_>
    <_>
      <rects>
        <_>
          7 7 8 4 -1.</_>
        <_>
          9 7 4 4 2.</_></rects>
      <tilted>0</tilted></_>
    <_>
      <rects>
        <_>
          7 7 5 6 -1.</_>
        <_>
          7 9 5 2 3.</_></rects>
      <tilted>0</tilted></_>
    <_>
      <rects>
        <_>
          7 12 6 4 -1.</_>
        <_>
          9 12 2 4 3.</_></rects>
      <tilted>0</tilted></_>
    <_>
      <rects>
        <_>
          7 16 8 4 -1.</_>
        <_>
          11 16 4 4 2.</_></rects>
      <tilted>0</tilted></_>
    <_>
      <rects>
        <_>
          8 1 4 1 -1.</_>
        <_>
          10 1 2 1 2.</_></rects>
      <tilted>0</tilted></_>
    <_>
      <rects>
        <_>
          8 5 12 12 -1.</_>
        <_>
          12 5 4 12 3.</_></rects>
      <tilted>0</tilted></_>
    <_>
      <rects>
        <_>
          8 6 3 3 -1.</_>
        <_>
          9 7 1 3 3.</_></rects>
      <tilted>1</tilted></_>
    <_>
      <rects>
        <_>
          8 6 2 3 -1.</_>
        <_>
          7 7 2 1 3.</_></rects>
      <tilted>1</tilted></_>
    <_>
      <rects>
        <_>
          8 6 6 12 -1.</_>
        <_>
          8 10 6 4 3.</_></rects>
      <tilted>0</tilted></_>
    <_>
      <rects>
        <_>
          8 8 2 7 -1.</_>
        <_>
          8 8 1 7 2.</_></rects>
      <tilted>1</tilted></_>
    <_>
      <rects>
        <_>
          8 10 3 8 -1.</_>
        <_>
          9 10 1 8 3.</_></rects>
      <tilted>0</tilted></_>
    <_>
      <rects>
        <_>
          8 12 12 6 -1.</_>
        <_>
          8 12 6 3 2.</_>
        <_>
          14 15 6 3 2.</_></rects>
      <tilted>0</tilted></_>
    <_>
      <rects>
        <_>
          9 3 4 14 -1.</_>
        <_>
          10 3 2 14 2.</_></rects>
      <tilted>0</tilted></_>
    <_>
      <rects>
        <_>
          9 8 3 8 -1.</_>
        <_>
          10 8 1 8 3.</_></rects>
      <tilted>0</tilted></_>
    <_>
      <rects>
        <_>
          9 9 2 4 -1.</_>
        <_>
          9 9 1 4 2.</_></rects>
      <tilted>1</tilted></_>
    <_>
      <rects>
        <_>
          9 9 3 11 -1.</_>
        <_>
          10 9 1 11 3.</_></rects>
      <tilted>0</tilted></_>
    <_>
      <rects>
        <_>
          10 1 3 3 -1.</_>
        <_>
          10 2 3 1 3.</_></rects>
      <tilted>0</tilted></_>
    <_>
      <rects>
        <_>
          10 4 4 4 -1.</_>
        <_>
          9 5 4 2 2.</_></rects>
      <tilted>1</tilted></_>
    <_>
      <rects>
        <_>
          10 5 4 4 -1.</_>
        <_>
          9 6 4 2 2.</_></rects>
      <tilted>1</tilted></_>
    <_>
      <rects>
        <_>
          10 5 5 9 -1.</_>
        <_>
          7 8 5 3 3.</_></rects>
      <tilted>1</tilted></_>
    <_>
      <rects>
        <_>
          10 6 2 6 -1.</_>
        <_>
          8 8 2 2 3.</_></rects>
      <tilted>1</tilted></_>
    <_>
      <rects>
        <_>
          10 7 2 6 -1.</_>
        <_>
          8 9 2 2 3.</_></rects>
      <tilted>1</tilted></_>
    <_>
      <rects>
        <_>
          10 7 5 4 -1.</_>
        <_>
          10 9 5 2 2.</_></rects>
      <tilted>0</tilted></_>
    <_>
      <rects>
        <_>
          10 8 8 2 -1.</_>
        <_>
          10 8 4 1 2.</_>
        <_>
          14 9 4 1 2.</_></rects>
      <tilted>0</tilted></_>
    <_>
      <rects>
        <_>
          10 14 4 4 -1.</_>
        <_>
          10 14 2 2 2.</_>
        <_>
          12 16 2 2 2.</_></rects>
      <tilted>0</tilted></_>
    <_>
      <rects>
        <_>
          11 7 4 2 -1.</_>
        <_>
          11 8 4 1 2.</_></rects>
      <tilted>0</tilted></_>
    <_>
      <rects>
        <_>
          11 9 8 2 -1.</_>
        <_>
          11 9 4 1 2.</_>
        <_>
          15 10 4 1 2.</_></rects>
      <tilted>0</tilted></_>
    <_>
      <rects>
        <_>
          11 11 6 2 -1.</_>
        <_>
          14 11 3 2 2.</_></rects>
      <tilted>0</tilted></_>
    <_>
      <rects>
        <_>
          12 4 3 8 -1.</_>
        <_>
          13 5 1 8 3.</_></rects>
      <tilted>1</tilted></_>
    <_>
      <rects>
        <_>
          12 5 6 3 -1.</_>
        <_>
          14 7 2 3 3.</_></rects>
      <tilted>1</tilted></_>
    <_>
      <rects>
        <_>
          12 6 2 4 -1.</_>
        <_>
          13 6 1 4 2.</_></rects>
      <tilted>0</tilted></_>
    <_>
      <rects>
        <_>
          12 7 3 5 -1.</_>
        <_>
          13 7 1 5 3.</_></rects>
      <tilted>0</tilted></_>
    <_>
      <rects>
        <_>
          13 6 4 2 -1.</_>
        <_>
          14 7 2 2 2.</_></rects>
      <tilted>1</tilted></_>
    <_>
      <rects>
        <_>
          13 14 6 1 -1.</_>
        <_>
          16 14 3 1 2.</_></rects>
      <tilted>0</tilted></_>
    <_>
      <rects>
        <_>
          14 3 2 14 -1.</_>
        <_>
          14 3 1 14 2.</_></rects>
      <tilted>1</tilted></_>
    <_>
      <rects>
        <_>
          14 9 3 6 -1.</_>
        <_>
          14 11 3 2 3.</_></rects>
      <tilted>0</tilted></_>
    <_>
      <rects>
        <_>
          14 9 6 2 -1.</_>
        <_>
          14 10 6 1 2.</_></rects>
      <tilted>0</tilted></_>
    <_>
      <rects>
        <_>
          15 10 4 3 -1.</_>
        <_>
          16 10 2 3 2.</_></rects>
      <tilted>0</tilted></_></features></cascade>
</opencv_storage>
