<?xml version="1.0"?>
<opencv_storage>
<cascade>
  <stageType>BOOST</stageType>
  <featureType>HAAR</featureType>
  <height>20</height>
  <width>20</width>
  <stageParams>
    <boostType>GAB</boostType>
    <minHitRate>9.9500000476837158e-001</minHitRate>
    <maxFalseAlarm>4.0000000596046448e-001</maxFalseAlarm>
    <weightTrimRate>9.4999999999999996e-001</weightTrimRate>
    <maxDepth>1</maxDepth>
    <maxWeakCount>100</maxWeakCount></stageParams>
  <featureParams>
    <maxCatCount>0</maxCatCount>
    <featSize>1</featSize>
    <mode>ALL</mode></featureParams>
  <stageNum>16</stageNum>
  <stages>
    <!-- stage 0 -->
    <_>
      <maxWeakCount>3</maxWeakCount>
      <stageThreshold>-1.1540200710296631e+000</stageThreshold>
      <weakClassifiers>
        <_>
          <internalNodes>
            0 -1 3 4.9619324505329132e-002</internalNodes>
          <leafValues>
            -9.4392526149749756e-001 6.6666668653488159e-001</leafValues></_>
        <_>
          <internalNodes>
            0 -1 39 5.4939962923526764e-002</internalNodes>
          <leafValues>
            -9.0966546535491943e-001 7.2687691450119019e-001</leafValues></_>
        <_>
          <internalNodes>
            0 -1 66 3.8974225521087646e-002</internalNodes>
          <leafValues>
            -7.9530090093612671e-001 6.9957053661346436e-001</leafValues></_></weakClassifiers></_>
    <!-- stage 1 -->
    <_>
      <maxWeakCount>4</maxWeakCount>
      <stageThreshold>-1.5512204170227051e+000</stageThreshold>
      <weakClassifiers>
        <_>
          <internalNodes>
            0 -1 38 5.3121149539947510e-002</internalNodes>
          <leafValues>
            -8.4297519922256470e-001 9.0697675943374634e-001</leafValues></_>
        <_>
          <internalNodes>
            0 -1 1 2.0305937528610229e-001</internalNodes>
          <leafValues>
            -8.9232969284057617e-001 6.4819294214248657e-001</leafValues></_>
        <_>
          <internalNodes>
            0 -1 58 7.2401091456413269e-002</internalNodes>
          <leafValues>
            -7.0629227161407471e-001 7.2133463621139526e-001</leafValues></_>
        <_>
          <internalNodes>
            0 -1 31 1.5138775110244751e-002</internalNodes>
          <leafValues>
            -5.6131404638290405e-001 8.9037674665451050e-001</leafValues></_></weakClassifiers></_>
    <!-- stage 2 -->
    <_>
      <maxWeakCount>4</maxWeakCount>
      <stageThreshold>-7.7598363161087036e-001</stageThreshold>
      <weakClassifiers>
        <_>
          <internalNodes>
            0 -1 57 6.4652040600776672e-002</internalNodes>
          <leafValues>
            -9.1071426868438721e-001 7.5000000000000000e-001</leafValues></_>
        <_>
          <internalNodes>
            0 -1 6 6.9217786192893982e-002</internalNodes>
          <leafValues>
            -8.8169759511947632e-001 8.0943620204925537e-001</leafValues></_>
        <_>
          <internalNodes>
            0 -1 22 -7.3526471853256226e-002</internalNodes>
          <leafValues>
            3.3461785316467285e-001 -9.8877912759780884e-001</leafValues></_>
        <_>
          <internalNodes>
            0 -1 64 1.6787856817245483e-002</internalNodes>
          <leafValues>
            -6.8813580274581909e-001 6.8181043863296509e-001</leafValues></_></weakClassifiers></_>
    <!-- stage 3 -->
    <_>
      <maxWeakCount>5</maxWeakCount>
      <stageThreshold>-8.9757585525512695e-001</stageThreshold>
      <weakClassifiers>
        <_>
          <internalNodes>
            0 -1 50 -3.2889686524868011e-002</internalNodes>
          <leafValues>
            8.0000001192092896e-001 -7.6612901687622070e-001</leafValues></_>
        <_>
          <internalNodes>
            0 -1 80 1.6626518219709396e-002</internalNodes>
          <leafValues>
            -6.3226431608200073e-001 7.6521581411361694e-001</leafValues></_>
        <_>
          <internalNodes>
            0 -1 4 7.0930286310613155e-003</internalNodes>
          <leafValues>
            -6.2495553493499756e-001 6.2720578908920288e-001</leafValues></_>
        <_>
          <internalNodes>
            0 -1 49 -1.8892087042331696e-002</internalNodes>
          <leafValues>
            6.1337655782699585e-001 -6.0056418180465698e-001</leafValues></_>
        <_>
          <internalNodes>
            0 -1 18 -7.6101697050035000e-004</internalNodes>
          <leafValues>
            5.1239651441574097e-001 -7.0355224609375000e-001</leafValues></_></weakClassifiers></_>
    <!-- stage 4 -->
    <_>
      <maxWeakCount>5</maxWeakCount>
      <stageThreshold>-1.2430727481842041e+000</stageThreshold>
      <weakClassifiers>
        <_>
          <internalNodes>
            0 -1 65 -3.5979911684989929e-002</internalNodes>
          <leafValues>
            7.3684209585189819e-001 -7.2222220897674561e-001</leafValues></_>
        <_>
          <internalNodes>
            0 -1 12 2.4364742636680603e-001</internalNodes>
          <leafValues>
            -5.8613979816436768e-001 7.4613398313522339e-001</leafValues></_>
        <_>
          <internalNodes>
            0 -1 69 -4.4153474271297455e-002</internalNodes>
          <leafValues>
            5.5717301368713379e-001 -5.8465868234634399e-001</leafValues></_>
        <_>
          <internalNodes>
            0 -1 75 3.6544687463901937e-004</internalNodes>
          <leafValues>
            3.0512657761573792e-001 -9.4952803850173950e-001</leafValues></_>
        <_>
          <internalNodes>
            0 -1 36 -6.2844489002600312e-004</internalNodes>
          <leafValues>
            3.4482133388519287e-001 -9.1540843248367310e-001</leafValues></_></weakClassifiers></_>
    <!-- stage 5 -->
    <_>
      <maxWeakCount>5</maxWeakCount>
      <stageThreshold>-1.4794988632202148e+000</stageThreshold>
      <weakClassifiers>
        <_>
          <internalNodes>
            0 -1 46 -3.0787175521254539e-002</internalNodes>
          <leafValues>
            7.5342464447021484e-001 -7.0980393886566162e-001</leafValues></_>
        <_>
          <internalNodes>
            0 -1 79 -2.1418791264295578e-002</internalNodes>
          <leafValues>
            4.7210288047790527e-001 -7.9056912660598755e-001</leafValues></_>
        <_>
          <internalNodes>
            0 -1 51 -4.8925550654530525e-003</internalNodes>
          <leafValues>
            -9.8891478776931763e-001 3.0848291516304016e-001</leafValues></_>
        <_>
          <internalNodes>
            0 -1 71 -4.6706311404705048e-003</internalNodes>
          <leafValues>
            6.2219107151031494e-001 -6.0039305686950684e-001</leafValues></_>
        <_>
          <internalNodes>
            0 -1 24 -1.0052934288978577e-002</internalNodes>
          <leafValues>
            3.1278434395790100e-001 -9.3539905548095703e-001</leafValues></_></weakClassifiers></_>
    <!-- stage 6 -->
    <_>
      <maxWeakCount>7</maxWeakCount>
      <stageThreshold>-8.0498826503753662e-001</stageThreshold>
      <weakClassifiers>
        <_>
          <internalNodes>
            0 -1 34 3.2184310257434845e-002</internalNodes>
          <leafValues>
            -6.8582373857498169e-001 7.9104477167129517e-001</leafValues></_>
        <_>
          <internalNodes>
            0 -1 77 2.4707160890102386e-002</internalNodes>
          <leafValues>
            -6.9117182493209839e-001 5.3789180517196655e-001</leafValues></_>
        <_>
          <internalNodes>
            0 -1 42 -5.6644082069396973e-002</internalNodes>
          <leafValues>
            8.3791625499725342e-001 -3.8429385423660278e-001</leafValues></_>
        <_>
          <internalNodes>
            0 -1 52 -1.3929861597716808e-004</internalNodes>
          <leafValues>
            4.2558729648590088e-001 -7.4231141805648804e-001</leafValues></_>
        <_>
          <internalNodes>
            0 -1 72 -3.4599814563989639e-002</internalNodes>
          <leafValues>
            5.6226021051406860e-001 -6.2638342380523682e-001</leafValues></_>
        <_>
          <internalNodes>
            0 -1 7 -1.4125427696853876e-003</internalNodes>
          <leafValues>
            4.5885467529296875e-001 -7.1776533126831055e-001</leafValues></_>
        <_>
          <internalNodes>
            0 -1 43 -6.5951207652688026e-003</internalNodes>
          <leafValues>
            6.9824260473251343e-001 -4.2638191580772400e-001</leafValues></_></weakClassifiers></_>
    <!-- stage 7 -->
    <_>
      <maxWeakCount>5</maxWeakCount>
      <stageThreshold>-1.0444842576980591e+000</stageThreshold>
      <weakClassifiers>
        <_>
          <internalNodes>
            0 -1 33 -3.5859208554029465e-002</internalNodes>
          <leafValues>
            6.9014084339141846e-001 -6.8093383312225342e-001</leafValues></_>
        <_>
          <internalNodes>
            0 -1 8 1.9579064100980759e-002</internalNodes>
          <leafValues>
            -6.3362497091293335e-001 5.5104595422744751e-001</leafValues></_>
        <_>
          <internalNodes>
            0 -1 2 1.3253914657980204e-003</internalNodes>
          <leafValues>
            3.6832043528556824e-001 -7.8044247627258301e-001</leafValues></_>
        <_>
          <internalNodes>
            0 -1 61 -1.5364121645689011e-002</internalNodes>
          <leafValues>
            6.0417848825454712e-001 -4.9688261747360229e-001</leafValues></_>
        <_>
          <internalNodes>
            0 -1 76 -2.5169455911964178e-003</internalNodes>
          <leafValues>
            -9.0838706493377686e-001 3.9863669872283936e-001</leafValues></_></weakClassifiers></_>
    <!-- stage 8 -->
    <_>
      <maxWeakCount>5</maxWeakCount>
      <stageThreshold>-9.2433899641036987e-001</stageThreshold>
      <weakClassifiers>
        <_>
          <internalNodes>
            0 -1 68 -9.3276128172874451e-003</internalNodes>
          <leafValues>
            5.8139532804489136e-001 -7.2727274894714355e-001</leafValues></_>
        <_>
          <internalNodes>
            0 -1 46 -3.0214546248316765e-002</internalNodes>
          <leafValues>
            7.4317777156829834e-001 -5.0420945882797241e-001</leafValues></_>
        <_>
          <internalNodes>
            0 -1 59 -1.0628712363541126e-002</internalNodes>
          <leafValues>
            4.2852059006690979e-001 -8.0506300926208496e-001</leafValues></_>
        <_>
          <internalNodes>
            0 -1 70 1.3770455494523048e-002</internalNodes>
          <leafValues>
            -4.4757398962974548e-001 8.2173109054565430e-001</leafValues></_>
        <_>
          <internalNodes>
            0 -1 45 -1.2502879835665226e-003</internalNodes>
          <leafValues>
            -1. 3.2619655132293701e-001</leafValues></_></weakClassifiers></_>
    <!-- stage 9 -->
    <_>
      <maxWeakCount>5</maxWeakCount>
      <stageThreshold>-1.3035050630569458e+000</stageThreshold>
      <weakClassifiers>
        <_>
          <internalNodes>
            0 -1 11 1.5794846415519714e-001</internalNodes>
          <leafValues>
            -7.8475338220596313e-001 4.6666666865348816e-001</leafValues></_>
        <_>
          <internalNodes>
            0 -1 35 3.3148404210805893e-002</internalNodes>
          <leafValues>
            -4.7416728734970093e-001 6.8060201406478882e-001</leafValues></_>
        <_>
          <internalNodes>
            0 -1 10 -4.6683298423886299e-003</internalNodes>
          <leafValues>
            4.9231302738189697e-001 -6.7673516273498535e-001</leafValues></_>
        <_>
          <internalNodes>
            0 -1 47 -8.7658455595374107e-004</internalNodes>
          <leafValues>
            3.4362635016441345e-001 -8.8020592927932739e-001</leafValues></_>
        <_>
          <internalNodes>
            0 -1 19 -3.3464476000517607e-003</internalNodes>
          <leafValues>
            -9.7487777471542358e-001 2.8852435946464539e-001</leafValues></_></weakClassifiers></_>
    <!-- stage 10 -->
    <_>
      <maxWeakCount>5</maxWeakCount>
      <stageThreshold>-6.5332198143005371e-001</stageThreshold>
      <weakClassifiers>
        <_>
          <internalNodes>
            0 -1 15 2.8651390224695206e-002</internalNodes>
          <leafValues>
            -6.9672131538391113e-001 5.2380955219268799e-001</leafValues></_>
        <_>
          <internalNodes>
            0 -1 67 -2.0698349922895432e-002</internalNodes>
          <leafValues>
            3.6806392669677734e-001 -8.1073611974716187e-001</leafValues></_>
        <_>
          <internalNodes>
            0 -1 28 -1.6261213459074497e-003</internalNodes>
          <leafValues>
            3.8230618834495544e-001 -8.4260195493698120e-001</leafValues></_>
        <_>
          <internalNodes>
            0 -1 81 9.5461970195174217e-003</internalNodes>
          <leafValues>
            2.8455483913421631e-001 -8.0822068452835083e-001</leafValues></_>
        <_>
          <internalNodes>
            0 -1 37 5.5141495540738106e-003</internalNodes>
          <leafValues>
            2.3338255286216736e-001 -9.5589590072631836e-001</leafValues></_></weakClassifiers></_>
    <!-- stage 11 -->
    <_>
      <maxWeakCount>5</maxWeakCount>
      <stageThreshold>-1.3446786403656006e+000</stageThreshold>
      <weakClassifiers>
        <_>
          <internalNodes>
            0 -1 62 -4.5499522238969803e-003</internalNodes>
          <leafValues>
            3.3333334326744080e-001 -7.2197312116622925e-001</leafValues></_>
        <_>
          <internalNodes>
            0 -1 0 2.7373753488063812e-002</internalNodes>
          <leafValues>
            -7.0311605930328369e-001 3.5691282153129578e-001</leafValues></_>
        <_>
          <internalNodes>
            0 -1 30 -1.9026007503271103e-003</internalNodes>
          <leafValues>
            4.6267619729042053e-001 -5.7937699556350708e-001</leafValues></_>
        <_>
          <internalNodes>
            0 -1 54 -2.3917041253298521e-003</internalNodes>
          <leafValues>
            -8.2518506050109863e-001 3.3496373891830444e-001</leafValues></_>
        <_>
          <internalNodes>
            0 -1 48 -1.5462108422070742e-004</internalNodes>
          <leafValues>
            3.2482379674911499e-001 -8.8538986444473267e-001</leafValues></_></weakClassifiers></_>
    <!-- stage 12 -->
    <_>
      <maxWeakCount>8</maxWeakCount>
      <stageThreshold>-1.5157638788223267e+000</stageThreshold>
      <weakClassifiers>
        <_>
          <internalNodes>
            0 -1 5 2.3806702345609665e-002</internalNodes>
          <leafValues>
            -7.4879229068756104e-001 2.3966942727565765e-001</leafValues></_>
        <_>
          <internalNodes>
            0 -1 32 -6.6885096020996571e-004</internalNodes>
          <leafValues>
            2.9039034247398376e-001 -8.2635998725891113e-001</leafValues></_>
        <_>
          <internalNodes>
            0 -1 53 -7.4556434992700815e-004</internalNodes>
          <leafValues>
            1.9304825365543365e-001 -9.7655737400054932e-001</leafValues></_>
        <_>
          <internalNodes>
            0 -1 60 -1.2845381163060665e-002</internalNodes>
          <leafValues>
            4.2651775479316711e-001 -5.6653094291687012e-001</leafValues></_>
        <_>
          <internalNodes>
            0 -1 73 1.8543224781751633e-002</internalNodes>
          <leafValues>
            -6.8781274557113647e-001 3.6722221970558167e-001</leafValues></_>
        <_>
          <internalNodes>
            0 -1 16 -3.1313467770814896e-002</internalNodes>
          <leafValues>
            -9.8401343822479248e-001 2.2730101644992828e-001</leafValues></_>
        <_>
          <internalNodes>
            0 -1 13 2.9833320528268814e-002</internalNodes>
          <leafValues>
            -3.5311022400856018e-001 8.5287368297576904e-001</leafValues></_>
        <_>
          <internalNodes>
            0 -1 17 3.2257270067930222e-002</internalNodes>
          <leafValues>
            2.5344431400299072e-001 -9.2925667762756348e-001</leafValues></_></weakClassifiers></_>
    <!-- stage 13 -->
    <_>
      <maxWeakCount>6</maxWeakCount>
      <stageThreshold>-1.1054075956344604e+000</stageThreshold>
      <weakClassifiers>
        <_>
          <internalNodes>
            0 -1 56 2.5823065079748631e-003</internalNodes>
          <leafValues>
            -9.3197280168533325e-001 6.0773480683565140e-002</leafValues></_>
        <_>
          <internalNodes>
            0 -1 78 -3.6999210715293884e-002</internalNodes>
          <leafValues>
            4.4886121153831482e-001 -5.4444152116775513e-001</leafValues></_>
        <_>
          <internalNodes>
            0 -1 21 6.5914899110794067e-002</internalNodes>
          <leafValues>
            -3.7328124046325684e-001 6.0448068380355835e-001</leafValues></_>
        <_>
          <internalNodes>
            0 -1 29 -7.6734451577067375e-003</internalNodes>
          <leafValues>
            -8.8500988483428955e-001 2.7189508080482483e-001</leafValues></_>
        <_>
          <internalNodes>
            0 -1 40 3.9168462157249451e-002</internalNodes>
          <leafValues>
            3.0533379316329956e-001 -8.8537031412124634e-001</leafValues></_>
        <_>
          <internalNodes>
            0 -1 20 2.1906249225139618e-002</internalNodes>
          <leafValues>
            -6.6461253166198730e-001 3.4620213508605957e-001</leafValues></_></weakClassifiers></_>
    <!-- stage 14 -->
    <_>
      <maxWeakCount>5</maxWeakCount>
      <stageThreshold>-1.3696764707565308e+000</stageThreshold>
      <weakClassifiers>
        <_>
          <internalNodes>
            0 -1 63 -3.8612880744040012e-003</internalNodes>
          <leafValues>
            4.6666666865348816e-001 -7.0588237047195435e-001</leafValues></_>
        <_>
          <internalNodes>
            0 -1 23 -2.0275300741195679e-001</internalNodes>
          <leafValues>
            4.4621831178665161e-001 -5.7039427757263184e-001</leafValues></_>
        <_>
          <internalNodes>
            0 -1 27 1.4158420963212848e-003</internalNodes>
          <leafValues>
            3.0084440112113953e-001 -7.4039894342422485e-001</leafValues></_>
        <_>
          <internalNodes>
            0 -1 55 -7.1599445072934031e-004</internalNodes>
          <leafValues>
            3.4490424394607544e-001 -6.3048017024993896e-001</leafValues></_>
        <_>
          <internalNodes>
            0 -1 26 -1.2793418020009995e-002</internalNodes>
          <leafValues>
            -9.6393847465515137e-001 2.3623591661453247e-001</leafValues></_></weakClassifiers></_>
    <!-- stage 15 -->
    <_>
      <maxWeakCount>6</maxWeakCount>
      <stageThreshold>-9.7049802541732788e-001</stageThreshold>
      <weakClassifiers>
        <_>
          <internalNodes>
            0 -1 74 3.9992377161979675e-002</internalNodes>
          <leafValues>
            -6.2500000000000000e-001 4.7222220897674561e-001</leafValues></_>
        <_>
          <internalNodes>
            0 -1 25 -2.2803097963333130e-003</internalNodes>
          <leafValues>
            3.0493760108947754e-001 -7.6042240858078003e-001</leafValues></_>
        <_>
          <internalNodes>
            0 -1 9 -1.1446581780910492e-001</internalNodes>
          <leafValues>
            3.9222189784049988e-001 -5.3486084938049316e-001</leafValues></_>
        <_>
          <internalNodes>
            0 -1 14 -6.1810061335563660e-002</internalNodes>
          <leafValues>
            -9.1823190450668335e-001 2.2352144122123718e-001</leafValues></_>
        <_>
          <internalNodes>
            0 -1 44 3.6684543010778725e-004</internalNodes>
          <leafValues>
            -4.1596239805221558e-001 5.0919800996780396e-001</leafValues></_>
        <_>
          <internalNodes>
            0 -1 41 1.6005950747057796e-003</internalNodes>
          <leafValues>
            2.4658994376659393e-001 -8.5021656751632690e-001</leafValues></_></weakClassifiers></_></stages>
  <features>
    <_>
      <rects>
        <_>
          0 2 10 6 -1.</_>
        <_>
          5 2 5 6 2.</_></rects>
      <tilted>0</tilted></_>
    <_>
      <rects>
        <_>
          0 2 18 15 -1.</_>
        <_>
          0 7 18 5 3.</_></rects>
      <tilted>0</tilted></_>
    <_>
      <rects>
        <_>
          0 4 2 14 -1.</_>
        <_>
          0 4 1 7 2.</_>
        <_>
          1 11 1 7 2.</_></rects>
      <tilted>0</tilted></_>
    <_>
      <rects>
        <_>
          0 5 12 6 -1.</_>
        <_>
          4 5 4 6 3.</_></rects>
      <tilted>0</tilted></_>
    <_>
      <rects>
        <_>
          0 12 8 1 -1.</_>
        <_>
          4 12 4 1 2.</_></rects>
      <tilted>0</tilted></_>
    <_>
      <rects>
        <_>
          0 15 20 2 -1.</_>
        <_>
          5 15 10 2 2.</_></rects>
      <tilted>0</tilted></_>
    <_>
      <rects>
        <_>
          1 3 9 11 -1.</_>
        <_>
          4 3 3 11 3.</_></rects>
      <tilted>0</tilted></_>
    <_>
      <rects>
        <_>
          1 4 4 6 -1.</_>
        <_>
          2 4 2 6 2.</_></rects>
      <tilted>0</tilted></_>
    <_>
      <rects>
        <_>
          1 8 4 4 -1.</_>
        <_>
          3 8 2 4 2.</_></rects>
      <tilted>0</tilted></_>
    <_>
      <rects>
        <_>
          2 9 10 8 -1.</_>
        <_>
          2 13 10 4 2.</_></rects>
      <tilted>0</tilted></_>
    <_>
      <rects>
        <_>
          2 16 12 4 -1.</_>
        <_>
          2 16 6 2 2.</_>
        <_>
          8 18 6 2 2.</_></rects>
      <tilted>0</tilted></_>
    <_>
      <rects>
        <_>
          3 6 10 9 -1.</_>
        <_>
          3 9 10 3 3.</_></rects>
      <tilted>0</tilted></_>
    <_>
      <rects>
        <_>
          3 6 16 9 -1.</_>
        <_>
          3 9 16 3 3.</_></rects>
      <tilted>0</tilted></_>
    <_>
      <rects>
        <_>
          3 8 11 3 -1.</_>
        <_>
          3 9 11 1 3.</_></rects>
      <tilted>0</tilted></_>
    <_>
      <rects>
        <_>
          3 10 5 9 -1.</_>
        <_>
          3 13 5 3 3.</_></rects>
      <tilted>0</tilted></_>
    <_>
      <rects>
        <_>
          3 10 7 2 -1.</_>
        <_>
          3 10 7 1 2.</_></rects>
      <tilted>1</tilted></_>
    <_>
      <rects>
        <_>
          3 13 14 5 -1.</_>
        <_>
          10 13 7 5 2.</_></rects>
      <tilted>0</tilted></_>
    <_>
      <rects>
        <_>
          3 15 16 5 -1.</_>
        <_>
          11 15 8 5 2.</_></rects>
      <tilted>0</tilted></_>
    <_>
      <rects>
        <_>
          3 16 6 2 -1.</_>
        <_>
          3 17 6 1 2.</_></rects>
      <tilted>0</tilted></_>
    <_>
      <rects>
        <_>
          4 0 9 1 -1.</_>
        <_>
          7 0 3 1 3.</_></rects>
      <tilted>0</tilted></_>
    <_>
      <rects>
        <_>
          4 5 6 4 -1.</_>
        <_>
          4 5 6 2 2.</_></rects>
      <tilted>1</tilted></_>
    <_>
      <rects>
        <_>
          4 8 4 4 -1.</_>
        <_>
          4 8 4 2 2.</_></rects>
      <tilted>1</tilted></_>
    <_>
      <rects>
        <_>
          4 8 16 8 -1.</_>
        <_>
          4 12 16 4 2.</_></rects>
      <tilted>0</tilted></_>
    <_>
      <rects>
        <_>
          4 9 16 10 -1.</_>
        <_>
          4 14 16 5 2.</_></rects>
      <tilted>0</tilted></_>
    <_>
      <rects>
        <_>
          5 7 1 12 -1.</_>
        <_>
          5 13 1 6 2.</_></rects>
      <tilted>0</tilted></_>
    <_>
      <rects>
        <_>
          5 7 4 5 -1.</_>
        <_>
          7 7 2 5 2.</_></rects>
      <tilted>0</tilted></_>
    <_>
      <rects>
        <_>
          5 9 6 4 -1.</_>
        <_>
          7 9 2 4 3.</_></rects>
      <tilted>0</tilted></_>
    <_>
      <rects>
        <_>
          6 3 3 7 -1.</_>
        <_>
          7 3 1 7 3.</_></rects>
      <tilted>0</tilted></_>
    <_>
      <rects>
        <_>
          6 5 6 11 -1.</_>
        <_>
          8 5 2 11 3.</_></rects>
      <tilted>0</tilted></_>
    <_>
      <rects>
        <_>
          6 9 6 3 -1.</_>
        <_>
          8 9 2 3 3.</_></rects>
      <tilted>0</tilted></_>
    <_>
      <rects>
        <_>
          6 11 4 4 -1.</_>
        <_>
          6 11 2 2 2.</_>
        <_>
          8 13 2 2 2.</_></rects>
      <tilted>0</tilted></_>
    <_>
      <rects>
        <_>
          7 2 6 4 -1.</_>
        <_>
          7 3 6 2 2.</_></rects>
      <tilted>0</tilted></_>
    <_>
      <rects>
        <_>
          7 4 4 4 -1.</_>
        <_>
          8 4 2 4 2.</_></rects>
      <tilted>0</tilted></_>
    <_>
      <rects>
        <_>
          7 5 7 4 -1.</_>
        <_>
          7 6 7 2 2.</_></rects>
      <tilted>0</tilted></_>
    <_>
      <rects>
        <_>
          8 2 3 4 -1.</_>
        <_>
          9 3 1 4 3.</_></rects>
      <tilted>1</tilted></_>
    <_>
      <rects>
        <_>
          8 2 3 5 -1.</_>
        <_>
          9 3 1 5 3.</_></rects>
      <tilted>1</tilted></_>
    <_>
      <rects>
        <_>
          8 2 6 8 -1.</_>
        <_>
          10 2 2 8 3.</_></rects>
      <tilted>0</tilted></_>
    <_>
      <rects>
        <_>
          8 2 4 4 -1.</_>
        <_>
          7 3 4 2 2.</_></rects>
      <tilted>1</tilted></_>
    <_>
      <rects>
        <_>
          8 6 3 9 -1.</_>
        <_>
          8 9 3 3 3.</_></rects>
      <tilted>0</tilted></_>
    <_>
      <rects>
        <_>
          8 6 10 8 -1.</_>
        <_>
          8 8 10 4 2.</_></rects>
      <tilted>0</tilted></_>
    <_>
      <rects>
        <_>
          8 8 7 4 -1.</_>
        <_>
          8 8 7 2 2.</_></rects>
      <tilted>1</tilted></_>
    <_>
      <rects>
        <_>
          8 11 3 5 -1.</_>
        <_>
          9 11 1 5 3.</_></rects>
      <tilted>0</tilted></_>
    <_>
      <rects>
        <_>
          8 11 5 6 -1.</_>
        <_>
          8 13 5 2 3.</_></rects>
      <tilted>0</tilted></_>
    <_>
      <rects>
        <_>
          8 15 10 2 -1.</_>
        <_>
          8 15 5 1 2.</_>
        <_>
          13 16 5 1 2.</_></rects>
      <tilted>0</tilted></_>
    <_>
      <rects>
        <_>
          8 19 10 1 -1.</_>
        <_>
          13 19 5 1 2.</_></rects>
      <tilted>0</tilted></_>
    <_>
      <rects>
        <_>
          9 0 2 3 -1.</_>
        <_>
          10 0 1 3 2.</_></rects>
      <tilted>0</tilted></_>
    <_>
      <rects>
        <_>
          9 1 2 7 -1.</_>
        <_>
          9 1 1 7 2.</_></rects>
      <tilted>1</tilted></_>
    <_>
      <rects>
        <_>
          9 1 6 19 -1.</_>
        <_>
          11 1 2 19 3.</_></rects>
      <tilted>0</tilted></_>
    <_>
      <rects>
        <_>
          9 3 4 8 -1.</_>
        <_>
          10 3 2 8 2.</_></rects>
      <tilted>0</tilted></_>
    <_>
      <rects>
        <_>
          9 3 3 6 -1.</_>
        <_>
          9 5 3 2 3.</_></rects>
      <tilted>0</tilted></_>
    <_>
      <rects>
        <_>
          9 4 3 6 -1.</_>
        <_>
          9 6 3 2 3.</_></rects>
      <tilted>0</tilted></_>
    <_>
      <rects>
        <_>
          10 2 3 8 -1.</_>
        <_>
          11 2 1 8 3.</_></rects>
      <tilted>0</tilted></_>
    <_>
      <rects>
        <_>
          10 5 3 2 -1.</_>
        <_>
          11 5 1 2 3.</_></rects>
      <tilted>0</tilted></_>
    <_>
      <rects>
        <_>
          10 7 1 10 -1.</_>
        <_>
          10 12 1 5 2.</_></rects>
      <tilted>0</tilted></_>
    <_>
      <rects>
        <_>
          10 9 4 3 -1.</_>
        <_>
          11 9 2 3 2.</_></rects>
      <tilted>0</tilted></_>
    <_>
      <rects>
        <_>
          10 9 4 6 -1.</_>
        <_>
          11 9 2 6 2.</_></rects>
      <tilted>0</tilted></_>
    <_>
      <rects>
        <_>
          11 6 4 5 -1.</_>
        <_>
          12 7 2 5 2.</_></rects>
      <tilted>1</tilted></_>
    <_>
      <rects>
        <_>
          11 6 9 7 -1.</_>
        <_>
          14 6 3 7 3.</_></rects>
      <tilted>0</tilted></_>
    <_>
      <rects>
        <_>
          11 6 9 8 -1.</_>
        <_>
          14 6 3 8 3.</_></rects>
      <tilted>0</tilted></_>
    <_>
      <rects>
        <_>
          12 1 8 6 -1.</_>
        <_>
          16 1 4 6 2.</_></rects>
      <tilted>0</tilted></_>
    <_>
      <rects>
        <_>
          12 3 7 3 -1.</_>
        <_>
          11 4 7 1 3.</_></rects>
      <tilted>1</tilted></_>
    <_>
      <rects>
        <_>
          12 3 8 3 -1.</_>
        <_>
          11 4 8 1 3.</_></rects>
      <tilted>1</tilted></_>
    <_>
      <rects>
        <_>
          12 5 1 4 -1.</_>
        <_>
          12 6 1 2 2.</_></rects>
      <tilted>0</tilted></_>
    <_>
      <rects>
        <_>
          12 12 1 4 -1.</_>
        <_>
          12 13 1 2 2.</_></rects>
      <tilted>0</tilted></_>
    <_>
      <rects>
        <_>
          13 1 6 3 -1.</_>
        <_>
          12 2 6 1 3.</_></rects>
      <tilted>1</tilted></_>
    <_>
      <rects>
        <_>
          13 1 7 2 -1.</_>
        <_>
          13 1 7 1 2.</_></rects>
      <tilted>1</tilted></_>
    <_>
      <rects>
        <_>
          13 5 6 6 -1.</_>
        <_>
          15 7 2 2 9.</_></rects>
      <tilted>0</tilted></_>
    <_>
      <rects>
        <_>
          13 8 6 6 -1.</_>
        <_>
          13 11 6 3 2.</_></rects>
      <tilted>0</tilted></_>
    <_>
      <rects>
        <_>
          13 11 3 2 -1.</_>
        <_>
          14 12 1 2 3.</_></rects>
      <tilted>1</tilted></_>
    <_>
      <rects>
        <_>
          14 0 6 11 -1.</_>
        <_>
          17 0 3 11 2.</_></rects>
      <tilted>0</tilted></_>
    <_>
      <rects>
        <_>
          14 4 4 2 -1.</_>
        <_>
          14 4 4 1 2.</_></rects>
      <tilted>1</tilted></_>
    <_>
      <rects>
        <_>
          14 5 1 3 -1.</_>
        <_>
          13 6 1 1 3.</_></rects>
      <tilted>1</tilted></_>
    <_>
      <rects>
        <_>
          14 5 6 5 -1.</_>
        <_>
          17 5 3 5 2.</_></rects>
      <tilted>0</tilted></_>
    <_>
      <rects>
        <_>
          15 2 1 16 -1.</_>
        <_>
          15 6 1 8 2.</_></rects>
      <tilted>0</tilted></_>
    <_>
      <rects>
        <_>
          15 3 5 3 -1.</_>
        <_>
          14 4 5 1 3.</_></rects>
      <tilted>1</tilted></_>
    <_>
      <rects>
        <_>
          16 0 4 1 -1.</_>
        <_>
          17 0 2 1 2.</_></rects>
      <tilted>0</tilted></_>
    <_>
      <rects>
        <_>
          16 0 4 4 -1.</_>
        <_>
          17 0 2 4 2.</_></rects>
      <tilted>0</tilted></_>
    <_>
      <rects>
        <_>
          16 3 1 16 -1.</_>
        <_>
          16 7 1 8 2.</_></rects>
      <tilted>0</tilted></_>
    <_>
      <rects>
        <_>
          16 7 4 5 -1.</_>
        <_>
          18 7 2 5 2.</_></rects>
      <tilted>0</tilted></_>
    <_>
      <rects>
        <_>
          16 8 4 10 -1.</_>
        <_>
          18 8 2 10 2.</_></rects>
      <tilted>0</tilted></_>
    <_>
      <rects>
        <_>
          16 9 4 6 -1.</_>
        <_>
          17 10 2 6 2.</_></rects>
      <tilted>1</tilted></_>
    <_>
      <rects>
        <_>
          19 2 1 18 -1.</_>
        <_>
          19 8 1 6 3.</_></rects>
      <tilted>0</tilted></_></features></cascade>
</opencv_storage>
